4 30
G -0.14645445 -0.004377377 0.22954707 0.008059583 -0.25953612 -0.15956019 0.25352356 0.17903493 -0.16624251 -0.11871107 0.06770852 0.18598722 -0.26851645 -0.0128870085 -0.031288043 -0.070959784 0.058557324 0.20919968 -0.18470527 -0.24746618 0.04030203 0.2043934 0.15573025 0.15632962 0.23805197 -0.1051944 0.16127485 0.0007678558 -0.3081727 0.1446007
U -0.17838886 -0.008704264 0.2778536 -0.06724067 -0.16483185 -0.10314906 0.1994139 0.06638301 -0.12927175 -0.083262555 -0.057322044 0.2202785 -0.24599358 -0.023815209 0.0315462 -0.097829394 0.013720431 0.27529895 -0.1340351 -0.18642808 -0.034249116 0.15593547 0.0723024 0.1993139 0.27131197 -0.06929128 0.22696854 -0.012098904 -0.31417245 0.20367736
A -0.14085582 -0.0019322527 0.20725551 -0.08257681 -0.19482975 -0.09468126 0.18650217 0.15847813 -0.15802209 -0.06405167 0.05250874 0.24267387 -0.22784185 -0.07829916 0.039319027 -0.076397195 0.09818806 0.19828564 -0.17453042 -0.28242496 0.0034256107 0.18176474 0.15022488 0.22926904 0.18164499 -0.055185102 0.22852461 -0.032074925 -0.31149137 0.20623581
C -0.16520332 -0.0056290873 0.27852753 -0.12076682 -0.052980505 -0.024266085 0.090120696 0.0085943965 -0.11430789 -0.0026268512 -0.11837362 0.2716867 -0.17600687 -0.02490512 0.123813495 -0.13859452 0.048819594 0.2936732 -0.14266244 -0.24463248 -0.05747068 0.08379341 0.03340679 0.29028627 0.24973473 0.012223637 0.31015608 0.018756496 -0.33508652 0.23319468
