4 20
G -0.056538116 0.17694947 0.13016282 0.22299023 -0.21060613 -0.29255903 0.07317431 0.5567751 -0.21341692 -0.036016732 0.0043440773 0.02763666 -0.063284576 0.0832331 -0.05070718 -0.16039987 0.31837344 -0.17015551 -0.3287219 -0.2610037
U -0.090703554 0.19260412 -0.022485163 -0.02860577 -0.08660117 -0.15775666 -0.057771258 0.5468828 -0.17721942 0.07542998 -0.06288717 0.17871419 -0.019914055 -0.13945638 0.10228228 -0.14451617 0.4035517 -0.23185112 -0.2684563 -0.22241737
A -0.12345316 0.19795044 0.0042145043 0.07314372 -0.14581794 -0.21558385 -0.02974507 0.5713179 -0.15518354 0.068036295 -0.06555162 0.116691306 -0.06684063 -0.008805087 0.06656841 -0.16737166 0.3562158 -0.2272385 -0.31077138 -0.17537715
C -0.10493299 0.16490419 -0.06514809 -0.093038626 -0.10145315 -0.113551356 -0.056807835 0.52823055 -0.17295767 0.091543354 0.0048254863 0.23542081 -0.045186654 -0.19514784 0.1313333 -0.119697876 0.4130188 -0.20048794 -0.25822854 -0.27156544
