4 50
G -0.15662187 0.06476059 0.10413105 0.22125152 -0.0011489164 -0.20524782 0.16998163 0.16565892 -0.14300735 -0.03627297 0.08777257 -0.10719487 -0.17668152 0.11046613 -0.049210984 0.07833561 0.12602924 0.133835 -0.1857807 -0.12944618 0.18337865 0.08830393 0.19755544 -0.15986864 0.21142076 -0.03050393 -0.018645693 0.1302109 -0.15426813 -0.07073419 -0.03749263 -0.03213865 0.2019389 -0.13264705 -0.041858688 0.010605125 0.25671306 -0.08739307 0.08249866 0.07162738 -0.05523458 0.004726618 -0.20859265 -0.08685673 0.04158898 0.12734826 -0.12564331 0.07669054 0.08860185 0.23043309
U -0.12755576 0.013988461 0.07863484 0.2233639 0.04318636 -0.14368579 0.22507718 0.16741477 -0.1445169 0.049840506 0.0062967497 -0.08273077 -0.20795745 0.03915752 -0.015381696 0.12760803 0.16918154 0.109757856 -0.12210168 -0.05339697 0.1543249 0.0381066 0.21339607 -0.14631628 0.20250276 -0.063670814 -0.043949746 0.09662952 -0.1071477 -0.10696844 -0.07945564 0.0026661525 0.22312666 -0.1372299 -0.042211667 0.007842586 0.252864 -0.14872256 0.09414382 0.0739405 -0.015483827 -0.020580942 -0.1629589 -0.12704273 0.04939631 0.16190796 -0.09207259 0.014620638 0.014283675 0.25317833
A -0.13591185 0.028448807 0.09489467 0.22248605 0.032715574 -0.16009924 0.19874744 0.17692937 -0.13949586 0.0053989147 0.029079553 -0.09971696 -0.19620468 0.075932205 -0.01715907 0.118286155 0.16264649 0.11838284 -0.1379097 -0.075138204 0.15451017 0.034720425 0.21565 -0.15065682 0.20346479 -0.048244435 -0.050698675 0.10980499 -0.115921095 -0.073675856 -0.048495363 -0.016592374 0.20260766 -0.14690723 -0.028734645 0.010824889 0.2491147 -0.111840874 0.10536138 0.0781891 -0.014916526 -0.02405277 -0.18683799 -0.111809075 0.030796628 0.15340899 -0.07957291 0.03577109 0.035689414 0.23388055
C -0.076368876 -0.036476567 0.0814739 0.2331046 0.023766978 -0.095886596 0.25529805 0.20297211 -0.13964084 0.07123298 -0.02957511 -0.06552878 -0.21819453 0.025457073 0.0023148828 0.14433514 0.2010959 0.0721177 -0.08194603 -0.026163748 0.12669922 -0.01293346 0.23465487 -0.098730095 0.18783149 -0.09444125 -0.08493473 0.08414291 -0.07817433 -0.11052849 -0.1215943 0.016682941 0.2340158 -0.17337842 -0.028713012 -0.005049844 0.23893707 -0.18549892 0.10695753 0.039021477 -0.01474922 -0.025866076 -0.15333527 -0.16062929 0.022910267 0.16173567 -0.055170115 0.014676408 -0.030123675 0.25983042
