4 15
G -0.18008736 -0.008119649 0.41651452 0.093317255 -0.46079147 -0.22536792 0.4814582 0.2914225 -0.16148412 -0.07362343 0.013651578 0.046985406 -0.2551506 0.0254967 -0.17709555
U -0.21079484 -0.06549519 0.47559217 -0.06459984 -0.32551175 -0.15271874 0.49040344 0.16607839 -0.079213075 0.09415845 -0.18146844 0.1167461 -0.2558014 -0.1715248 -0.055109207
A -0.21984385 -0.05614606 0.46887723 -0.021482972 -0.3253013 -0.19861099 0.46481857 0.13302936 -0.09812884 -0.015358452 -0.14040308 0.1113258 -0.30135903 -0.095303014 -0.075033374
C -0.1891424 -0.15580231 0.5331989 0.010055179 -0.15008527 -0.24376163 0.47616476 0.07628937 -0.06029756 0.17175344 -0.2181412 0.16485359 -0.32583225 -0.18711708 0.0759033
