4 100
G -0.09397702 0.079190284 0.054948293 0.14424436 0.0036083392 -0.09673842 0.07327693 0.20058317 -0.13570623 -0.074644074 0.090305336 -0.096040174 -0.020281415 0.13061583 0.04484826 -0.021955218 0.16502735 0.13666375 -0.24024099 -0.15463716 0.068658344 -0.012384431 0.1616529 -0.106234044 0.15802826 -0.049312692 0.028239494 0.15011601 -0.14725746 0.027721453 0.017573245 -0.10488612 0.044948254 -0.14504589 -0.048951775 0.005136139 0.15941235 -0.021657577 0.052154396 0.021574782 -0.090977386 0.036461975 -0.15881771 -0.016929667 0.022711659 0.0879272 -0.035774812 0.08242113 0.033942394 0.11007306 -0.025758173 -0.027328668 -0.11898519 -0.04003772 0.021385219 -0.03608644 0.10832036 -0.044028524 -0.07759146 0.13112465 -0.047908545 0.0124567 -0.0077054594 -0.119813725 -0.03398136 0.12387597 0.098623954 0.09053983 -0.03681639 0.09386969 0.08762148 0.07037984 0.045172825 -0.030310875 0.020904528 0.005653753 0.09296521 0.014698125 -0.02888399 -0.12560591 -0.07601854 0.017360711 0.052488424 0.04451342 -0.054939218 -0.035523906 0.061643496 -0.16009441 0.030011952 0.028954182 -0.018316323 0.026026487 0.11180602 -0.08081449 0.16575696 0.109853104 -0.020633383 -0.10364335 -0.0044793156 0.046279266
U -0.11826474 0.11216854 0.027182348 0.10726123 0.061655138 -0.074635066 0.054542784 0.19732462 -0.1048437 -0.069526784 0.078799315 -0.07674756 0.01796877 0.08764569 0.09113569 -0.028118055 0.16038759 0.11193047 -0.20939533 -0.09126787 0.03236367 -0.037716765 0.13733383 -0.07975619 0.12243 -0.037652362 0.06103558 0.15337916 -0.12746169 0.048569143 0.053242043 -0.12539922 -0.018937452 -0.14893359 -0.04659383 0.04010049 0.18203342 -0.017086076 0.030886978 0.073910065 -0.061443157 0.04023083 -0.12409811 -0.0016828952 0.053687956 0.11317933 0.0002915255 0.043595195 0.0032832685 0.08230582 0.01811843 -0.052590035 -0.16356473 -0.09274057 -0.041560024 -0.03344138 0.11136668 0.00043528707 -0.06647838 0.0953882 -0.04210662 0.024220984 0.04451367 -0.110100515 -0.025720824 0.11320452 0.11240143 0.10501504 -0.044035006 0.0665817 0.09327075 0.03679391 0.05874296 0.035861183 -0.0046203765 0.00049732695 0.07388233 0.048343915 -0.045979135 -0.10287947 -0.103218414 0.018650405 0.044449642 0.034524284 -0.046537198 -0.06733243 0.0742338 -0.16335447 0.05359359 -0.025414377 -0.062459525 0.035811577 0.1346319 -0.11540132 0.21257265 0.12144762 0.04204171 -0.13554111 -0.0061370158 0.0033476516
A -0.09908897 0.09446751 0.029012552 0.1220619 0.039938815 -0.070275165 0.056292165 0.19674462 -0.13163385 -0.055766575 0.07113182 -0.088820435 0.012290885 0.10877308 0.07243686 -0.034352962 0.15131864 0.12988116 -0.21458437 -0.124443784 0.035191182 -0.027713018 0.12564762 -0.100546785 0.15459557 -0.052543107 0.055232093 0.1565356 -0.14699413 0.041583277 0.03993304 -0.122596785 0.006057807 -0.14020225 -0.060766872 0.013560554 0.1543759 -0.01222131 0.043866917 0.035985455 -0.083592266 0.03783597 -0.13493808 0.0024517723 0.037951518 0.095871314 -0.017653711 0.05632277 0.012551503 0.09073547 -0.0057782647 -0.039286606 -0.13976757 -0.07052377 -0.019382084 -0.04382469 0.09777998 -0.033326164 -0.07996448 0.10187074 -0.034324598 0.008759328 0.02697341 -0.10480889 -0.04054092 0.122501254 0.104923904 0.093869165 -0.0471608 0.08425224 0.08575014 0.06029291 0.05455525 -0.0013220051 0.004577623 0.019067839 0.09784433 0.032823138 -0.03849693 -0.1088337 -0.07938122 0.0013607849 0.031517148 0.0384437 -0.04720248 -0.05631678 0.05526614 -0.16686055 0.052994076 0.007362141 -0.043122116 0.039353557 0.13395038 -0.09880279 0.19377744 0.12079822 0.015072749 -0.1143487 0.010295702 0.016286476
C -0.1333721 0.13668986 0.022032116 0.08203032 0.0614571 -0.083557494 0.06309198 0.2005552 -0.061481774 -0.096511275 0.121508315 -0.03764616 0.036043014 0.040932663 0.113533765 -0.040884744 0.20241548 0.08070368 -0.2556101 -0.06618945 0.046064798 -0.040428728 0.1852735 -0.024376584 0.06650806 -0.028132759 0.091693416 0.16566937 -0.11657562 0.03966766 0.039629273 -0.13579781 -0.0443216 -0.15495612 -0.03013258 0.07792762 0.22163169 -0.05540556 -0.023611678 0.10766725 -0.058066193 0.07458669 -0.0924086 -0.019322926 0.08889817 0.11508274 0.0032643233 0.039251495 -0.009539736 0.06813818 0.024983497 -0.036106892 -0.19811189 -0.13356459 -0.060622104 -0.040366843 0.101927474 0.038184337 -0.030523509 0.061359588 -0.029704437 0.043570902 0.0763726 -0.10155423 -0.0048480504 0.06876402 0.08840259 0.1407956 -0.057702806 0.0078013865 0.11752865 0.025833005 0.03947593 0.06860239 -0.011164466 -0.018157464 0.04772714 0.077265814 -0.0734722 -0.08227721 -0.10801577 0.045742184 0.060242567 0.05217144 -0.049682274 -0.06510486 0.10829619 -0.10278526 0.028555967 -0.05897515 -0.08638379 0.024844123 0.10422536 -0.099201605 0.22586061 0.09605644 0.054622702 -0.15391374 -0.01049605 -0.023895344
