4 10
G 0.14306243 0.09036716 0.32991078 0.34713134 -0.24965599 -0.3320042 0.2701401 0.39623746 -0.3614313 -0.28469098
U 0.112233296 0.02653475 0.28427988 0.24802862 -0.28736973 -0.29305074 0.35167548 0.23490795 -0.39535955 -0.41766885
A 0.3519116 0.083945155 0.13888459 0.31523022 -0.14023377 -0.2677799 0.16825545 0.29477254 -0.50880617 -0.4422924
C 0.03224724 0.055100027 0.4675143 0.06947528 -0.18860018 -0.28459686 0.4076623 0.11409892 -0.41081586 -0.48541424
