4 300
G -0.011511286 0.002181151 0.011583244 0.07497955 -0.050179977 -0.07228427 0.06829362 0.09560429 -0.03091402 -0.066325024 0.1101285 0.0066725286 -0.022211988 0.061233733 -0.028324079 -0.0043703737 0.096688956 -0.0072567817 -0.06416839 -0.08901796 0.06078675 0.02608344 0.10576688 0.039448738 0.03081562 -0.013120407 -0.008433414 0.052216835 -0.046334546 -0.04310491 -0.0015845007 0.025881132 0.04427341 -0.023408914 -0.044789724 0.03735591 0.063116975 -0.0868338 -0.053724147 -0.022918232 -0.011796287 0.041742142 -0.008846408 -0.07869413 0.039063286 0.053119548 -0.079246014 0.02805643 0.0133074615 0.05881552 -0.034073494 0.0120509295 -0.099893585 -0.00010406795 0.009020295 -0.0845725 0.01890794 -0.051538497 -0.02129813 0.01074759 -0.01689816 0.018685438 0.04769432 -0.05230476 -0.01938876 0.009904354 -0.043879677 0.02567087 -0.052899197 -0.046702642 0.055112142 0.07986891 -0.03423059 -0.026252845 0.052275244 -0.05839222 0.054148372 0.036260974 -0.034383677 -0.022024844 0.008169614 0.008501269 0.020170726 0.08323067 -0.046603914 -0.03509206 0.093944944 -0.031134695 -0.040736724 0.022716835 -0.046642307 0.018171756 0.014686483 0.006986905 0.11706421 0.019129716 -0.024551924 -0.08381263 0.010910758 0.052722823 -0.03392004 0.0072251605 0.062562265 0.042556398 0.027087398 -0.03326158 0.020163564 0.042629905 -0.06455198 -0.059675224 -0.009571939 -0.04815095 -0.029514166 0.03350993 0.012237525 0.05340468 0.058877904 0.0638344 -0.0237121 -0.07739776 0.012337582 -0.039094172 0.10550885 -0.07602584 -0.011858829 0.058334067 -0.046385072 0.06627102 -0.054408416 0.08948729 0.055582665 -0.0058010914 0.015925791 -0.08167649 0.056632817 0.0014998193 0.017892154 0.043959897 0.015604195 0.076531455 0.09206195 -0.08171533 -0.11330905 0.06078025 0.022423534 -0.012589989 0.017490856 -0.024739388 0.047409702 -0.008681268 0.019235497 -0.056009855 0.05669158 -0.019454693 -0.025754679 0.06696531 -0.023655128 0.022367738 0.009925887 0.06294311 -0.024865372 -0.0200193 -0.032672834 0.009819762 -0.00079233944 0.067471884 0.029853575 0.017371813 0.03536366 0.044268027 -0.02482244 -0.01883449 0.0361032 0.06669776 -0.0074056746 0.011341436 -0.008930903 -0.02544835 0.06483324 -0.07664713 -0.10597692 0.015166549 0.022491554 -0.023553153 -0.032062393 -0.042899683 0.039268147 -0.010932066 0.031983476 -0.04663032 0.04339163 -0.040337775 -0.0027420009 -0.029177174 -0.028839577 -0.013909308 0.07136015 -0.029015997 -0.035220977 0.005433512 -0.048129674 0.082373284 -0.02850322 0.0061483737 0.04697325 0.041220833 0.028293693 0.027051028 -0.11624056 0.024750758 -0.022670642 -0.046201754 0.0709339 -0.049531493 0.09176816 -0.079479866 -0.020422677 0.022979926 -0.10371485 -0.07115125 -0.084588274 -0.015072048 0.04538589 -0.074659266 0.01902977 -0.054079637 0.041939333 -0.022328336 -0.025544016 0.017268773 0.076022275 -0.12059633 -0.041603565 -0.0045981193 -0.05715942 0.043101426 0.013179612 0.06979684 0.026095405 -0.06701491 -0.030907938 -0.0031343312 -0.028459439 0.048286263 0.01489227 0.0065140645 0.030716857 0.026127534 -0.05397543 -0.009285211 0.025076596 -0.05822601 -0.0047679185 -0.030488785 -0.09283421 -0.040024914 0.033744756 -0.040800016 -0.04734023 -0.0863749 0.03473262 -0.043509442 0.12926346 -0.03143107 -0.08596167 0.08582856 0.051826727 0.087366484 -0.1300358 0.022330483 -0.010420493 0.08268487 0.08762209 0.07371611 -0.049473274 0.07511721 -0.010348053 0.022575907 -0.061705474 -0.004772887 0.02667248 -0.08817816 -0.021908417 -0.036028236 0.044392698 -0.06337929 -0.060258623 -0.059249848 0.059311103 0.042990882 -0.007387454 0.06727045 0.022562077 -0.035862505 0.14437327 0.07542772 0.025694314 -0.005483005 0.078073554 -0.09822037
U -0.015590065 -0.0044202544 -0.0044488413 0.072724506 -0.038839646 -0.07203594 0.059735846 0.09279322 -0.027115747 -0.06960686 0.10949185 0.008152631 -0.01703382 0.056653935 -0.024799874 0.006340331 0.10593627 -0.018340172 -0.048883863 -0.08670884 0.053599488 0.02250035 0.10016028 0.040502477 0.028838629 -0.011305822 -0.01446274 0.054244235 -0.038258035 -0.04437884 0.021616269 0.035265893 0.033822823 -0.0026817557 -0.05323018 0.050306864 0.055102766 -0.08162945 -0.058839742 -0.012714159 0.010914733 0.041256666 0.0056925383 -0.08337895 0.043416068 0.06278806 -0.076278836 0.016344443 0.008095094 0.05353737 -0.01917928 0.010821782 -0.10480423 0.0057224734 -0.0045053754 -0.09312449 0.008186268 -0.046646886 -0.012791093 -0.008530186 -0.018202052 0.02677321 0.07042901 -0.044052817 -0.023458585 0.0023740476 -0.051908363 0.008359685 -0.05272954 -0.060682982 0.052406177 0.07763542 -0.039052133 -0.018812085 0.05135999 -0.072805054 0.0478936 0.03914189 -0.026850346 -0.005683911 0.014567623 0.0007161639 0.009402506 0.08547648 -0.039236896 -0.048588257 0.08607127 -0.024328085 -0.033859108 0.016549826 -0.0634852 0.027588863 0.012649329 0.014002336 0.1195423 0.0046119737 -0.016715711 -0.07433904 0.018607821 0.049430072 -0.013253479 -0.0011631419 0.06710335 0.027999872 0.0074710264 -0.030509608 0.016998533 0.039365347 -0.070028216 -0.06201615 -0.0023296676 -0.040095866 -0.013412826 0.018340273 0.010360559 0.049497798 0.05439298 0.05330786 -0.016761454 -0.09323648 0.0065131076 -0.036111888 0.10713622 -0.06864779 -0.033482112 0.06352928 -0.042439222 0.062211867 -0.051458117 0.090288505 0.03766655 0.00333009 0.027043507 -0.07305026 0.06066603 0.00013774127 0.007662929 0.03485029 -0.008271702 0.0664328 0.08593546 -0.07756376 -0.1133327 0.07533801 0.026065169 -0.03695759 0.0043901606 -0.026038334 0.043679718 -0.0125619 7.448157e-05 -0.04442668 0.057739884 -0.02756341 -0.024312036 0.05844131 -0.05019049 0.01051019 0.01890123 0.058455143 -0.017683642 -0.032060314 -0.025244722 0.02390754 -0.016429896 0.06890882 0.008918033 0.025180155 0.027363885 0.032224182 -0.016662972 0.004624294 0.026407111 0.06919271 -0.005487387 0.03516412 0.010218395 -0.031921342 0.058976594 -0.07269856 -0.09454019 0.016919617 0.02058521 -0.0057736794 -0.046746917 -0.039869804 0.03954846 0.01178843 0.036334656 -0.03850398 0.052976366 -0.04069096 -0.009354755 -0.010819483 -0.031823874 -0.020855084 0.076890476 -0.03276855 -0.01621268 -0.01069939 -0.045784794 0.09347398 -0.016428703 0.015009706 0.038637586 0.025500614 0.038466 0.03013558 -0.117237285 0.011814487 -0.011105495 -0.043069948 0.059330184 -0.059738807 0.09320272 -0.081189826 -0.036587156 -0.00044621126 -0.102749966 -0.07673414 -0.083731815 -0.013738907 0.060189266 -0.07414116 -0.0034581237 -0.057526857 0.023354122 -0.03027385 -0.011713697 0.010805594 0.07142997 -0.12632154 -0.03035637 0.0012147792 -0.046013612 0.05228883 0.016017068 0.07159632 0.019283948 -0.078862324 -0.030857556 -0.007827266 -0.028225781 0.04657925 0.0066972207 -0.004127586 0.03986643 0.034966614 -0.05379742 -0.0008640243 0.027414104 -0.06422967 0.014866358 -0.014564661 -0.090849884 -0.033054013 0.042210802 -0.031450298 -0.040643353 -0.0917467 0.030947914 -0.040513586 0.12884867 -0.0405721 -0.08727398 0.08300104 0.048687313 0.09412416 -0.13945697 0.01573093 -0.023714986 0.09029317 0.092063084 0.08294341 -0.047198165 0.072119355 -0.036675 0.023845548 -0.06596112 -0.009615705 0.025291186 -0.07296494 -0.01333755 -0.04148563 0.053713012 -0.058850937 -0.0631004 -0.057520073 0.057009082 0.05374071 0.00470008 0.060502924 -0.001473036 -0.028361991 0.1518517 0.068760715 0.009882218 -0.009156408 0.06638645 -0.0976844
A -0.0011076425 0.0027322914 0.0115810875 0.064796 -0.042301953 -0.062906586 0.072911225 0.08751392 -0.028274244 -0.064172976 0.11146074 0.011507795 -0.018401263 0.06471133 -0.027076848 -0.009267501 0.102917925 0.003943501 -0.061858065 -0.08666864 0.05678186 0.017471531 0.11492128 0.042703785 0.021931551 -0.0055704033 -0.0043174075 0.038424768 -0.039483737 -0.039658193 0.0052097957 0.032464735 0.03364409 -0.021179138 -0.043904398 0.038567115 0.050820436 -0.09489874 -0.062030576 -0.029969873 -0.000118502525 0.029719666 0.008152618 -0.08076515 0.043816973 0.06199499 -0.07962242 0.0076850094 0.0027286944 0.045058772 -0.029754002 -0.0045953724 -0.10638915 -0.0039055187 -0.00801351 -0.086084746 0.016083341 -0.052917402 -0.028091345 -0.0041533615 -0.014468671 0.010027293 0.052886546 -0.04485661 -0.018133642 0.01631958 -0.046652455 0.023990814 -0.059470218 -0.051520552 0.0489759 0.07698987 -0.033867713 -0.008100495 0.05509795 -0.06310724 0.051556055 0.04619302 -0.040530253 -0.009528512 0.012113183 0.002561296 0.011328829 0.07698966 -0.0454505 -0.039461553 0.1052971 -0.033071034 -0.049336717 0.013454166 -0.046317127 0.013351048 0.006317888 0.0017113735 0.105628155 0.020735532 -0.0042006266 -0.089351475 0.0028195737 0.051240526 -0.025022807 0.0013643039 0.06252689 0.052237112 0.022793476 -0.024128238 0.026239708 0.03201211 -0.06664407 -0.056253836 -0.015763398 -0.03999794 -0.027425446 0.029381525 0.0068263705 0.04758145 0.05740559 0.061201558 -0.028402384 -0.08230133 0.012507884 -0.029046915 0.09829233 -0.0751472 -0.020982208 0.060602024 -0.046525892 0.07252423 -0.06522312 0.09139193 0.045565557 0.0003181914 0.010111819 -0.09055517 0.04825023 -0.0051498776 0.005929483 0.040213816 0.005154157 0.07336505 0.097097956 -0.08007785 -0.10591231 0.061545394 0.037973456 -0.020653084 0.008636915 -0.025757806 0.06075542 -0.010431429 0.008892956 -0.049731046 0.072111875 -0.031189142 -0.032639667 0.06972477 -0.036991227 0.021552986 0.00681515 0.061401572 -0.0048872633 -0.023947459 -0.03459512 0.021084296 0.0039212713 0.06737735 0.021549553 0.036522936 0.026348721 0.037016198 -0.022183418 -0.017742446 0.038830847 0.055066403 -0.011617708 0.013394735 0.000605786 -0.022233052 0.067070544 -0.08738679 -0.11089253 0.0059683467 0.00674079 -0.021488795 -0.026522277 -0.047492806 0.048399042 0.0037882638 0.033848576 -0.04856096 0.040800396 -0.044850584 -0.011047796 -0.02149787 -0.025316311 -0.017533997 0.061341718 -0.028103773 -0.026831744 0.0032452147 -0.06475982 0.08483322 -0.02057801 0.012095874 0.04634948 0.042778973 0.042110424 0.017576488 -0.115718074 0.026185382 -0.019359997 -0.05168146 0.07449816 -0.05339316 0.09246625 -0.072402865 -0.029260881 0.017276049 -0.10332752 -0.06594225 -0.077442504 0.002615903 0.057702303 -0.06945558 0.021927988 -0.044268884 0.038138043 -0.04042261 -0.022089928 0.0070835957 0.08124601 -0.118358284 -0.03198253 0.005543305 -0.0516174 0.04954723 0.012017297 0.07576928 0.03447554 -0.07256744 -0.023340374 -0.00092090067 -0.030051231 0.037877906 0.012186408 0.0026734662 0.024772994 0.03317398 -0.05404475 -0.017691994 0.022890836 -0.054270845 -0.0028883682 -0.031479824 -0.07962856 -0.037697155 0.038039587 -0.04165334 -0.03696635 -0.090259604 0.02514995 -0.0461057 0.13377677 -0.033701804 -0.08660957 0.07506295 0.037904702 0.08524804 -0.13118102 0.018437888 -0.02005473 0.075750425 0.09027791 0.07800404 -0.05653614 0.060737886 -0.021709314 0.00793199 -0.06795456 -0.003723548 0.027260812 -0.09643605 -0.00474912 -0.034826674 0.04526426 -0.059240304 -0.05335811 -0.056714825 0.046047453 0.04394616 -0.010971568 0.0677425 0.023516366 -0.03728297 0.14627138 0.08423782 0.028522814 0.0018491299 0.08177806 -0.09873163
C -0.027249295 -0.015811007 -0.020205667 0.08416876 -0.03918835 -0.08183586 0.046916828 0.098016046 -0.029700302 -0.073670074 0.10634591 0.0026276081 -0.0182637 0.052956883 -0.027203744 0.023124022 0.10747597 -0.0390806 -0.03409023 -0.092508055 0.051577996 0.029710053 0.083622366 0.034976605 0.041482545 -0.018926146 -0.027877629 0.07050278 -0.03955463 -0.050685566 0.03744483 0.04022486 0.03893727 0.016071877 -0.06559753 0.0590336 0.05750709 -0.06754866 -0.05242002 -8.846121e-05 0.019539824 0.052212782 -0.00068429974 -0.08676582 0.040531967 0.063309595 -0.076351166 0.027861694 0.015759429 0.06532753 -0.01161792 0.027380224 -0.1011815 0.019925142 0.0028675213 -0.10226308 4.789997e-06 -0.045915186 -0.00020186827 -0.009961993 -0.022602199 0.042190403 0.085412495 -0.044395126 -0.031355463 -0.009081876 -0.057876687 -0.010280937 -0.04597322 -0.06655533 0.05501217 0.08233497 -0.044639364 -0.035679877 0.049859922 -0.081730194 0.048169132 0.029360905 -0.011102365 -0.0039513684 0.019442575 -0.0034008138 0.006448949 0.09533746 -0.03358878 -0.05725074 0.06457236 -0.018611496 -0.017957509 0.024994763 -0.07864744 0.043111652 0.020172697 0.027971728 0.13279693 -0.01098411 -0.033596925 -0.057799302 0.03630769 0.051577352 0.0004970027 -0.0037943858 0.07660215 0.005275721 -0.008712557 -0.040885642 0.0073916297 0.04744709 -0.073166676 -0.07281606 0.014091045 -0.043955762 0.0035312497 0.007387214 0.01675192 0.05503177 0.054383937 0.044609386 -0.008064575 -0.103785776 0.00044486683 -0.040889163 0.11561394 -0.06832599 -0.044688858 0.06752845 -0.039871555 0.050786834 -0.03470082 0.09122054 0.028586145 0.004904932 0.044229362 -0.05303396 0.07120287 0.0086257635 0.011790926 0.029237049 -0.020496206 0.06102694 0.07614614 -0.07421309 -0.119758636 0.08668724 0.011183548 -0.050162293 -0.0005300005 -0.02702547 0.025032612 -0.011634579 -0.009600716 -0.042852603 0.03960748 -0.021874297 -0.015690405 0.052077595 -0.05906841 0.0041608517 0.031906165 0.060185827 -0.034316238 -0.037774228 -0.01778931 0.026146825 -0.035561625 0.07271031 -0.007075395 0.009242492 0.031770535 0.024842609 -0.009366013 0.02383332 0.016205221 0.084247194 -0.00070413615 0.0541581 0.020272618 -0.04649086 0.049127687 -0.055277996 -0.07723068 0.03222789 0.034531422 0.010535504 -0.065102145 -0.02952642 0.027581345 0.017956523 0.04386484 -0.027447177 0.06513843 -0.035306156 -0.009739704 0.0006629958 -0.040532675 -0.020783566 0.09217756 -0.04049481 -0.0072616437 -0.025831366 -0.02338265 0.10345714 -0.013037221 0.022061618 0.036488473 0.009852227 0.03295107 0.04227119 -0.11908671 0.0011045234 -0.001334232 -0.034417085 0.04917142 -0.06296776 0.09769608 -0.08876912 -0.041375745 -0.014786472 -0.10400768 -0.089020506 -0.0886792 -0.031072471 0.059692517 -0.084637985 -0.025309308 -0.07113883 0.008430166 -0.015534683 -0.0028248774 0.012543924 0.060834948 -0.13380371 -0.02827809 -4.9631184e-05 -0.042244058 0.05175086 0.017739546 0.066717304 0.0020675964 -0.08525148 -0.043895066 -0.011619029 -0.02379824 0.058112435 0.0020680653 -0.009140715 0.056368966 0.03374456 -0.054668214 0.016896524 0.03148191 -0.0721782 0.028908065 -0.0022214528 -0.10087086 -0.030678164 0.042618245 -0.018801011 -0.042938158 -0.09186555 0.0343507 -0.03563485 0.12301233 -0.04451092 -0.0918965 0.092572264 0.06120918 0.104409516 -0.14780478 0.018023271 -0.028274039 0.10463916 0.09246177 0.08707291 -0.038467497 0.082468234 -0.047210686 0.03956408 -0.06543529 -0.017445628 0.020663511 -0.04834795 -0.025870405 -0.044882316 0.06369656 -0.05642345 -0.07250489 -0.06422651 0.07108319 0.0633739 0.016297301 0.051000983 -0.022276789 -0.018953664 0.15680942 0.052553218 -0.0075437846 -0.016766572 0.051543754 -0.09625625
