4 200
G -0.022522599 0.01358422 -0.024446955 0.05904505 -0.024563368 0.004216503 0.05305218 0.09538612 -0.104600996 0.028442679 0.02091753 -0.002466514 -0.03492122 0.08475427 -0.0383515 -0.064196154 0.049666073 0.09274294 -0.0771407 -0.14153513 0.033938278 -0.024597956 0.09274158 0.013149624 0.07869616 -0.042109717 0.030818438 0.08834952 -0.13220929 -0.015402594 0.0073541612 -0.0147093665 0.048769534 -0.109611504 -0.029773336 -0.04934418 0.03788637 -0.033242073 -0.007462829 -0.052795593 -0.08307914 0.006486151 -0.106995225 0.024000986 0.053332325 0.0034874778 -0.055010516 0.04974702 0.035713732 0.03318619 -0.042447355 0.029376123 -0.035480246 -0.044841863 0.006969659 -0.11525225 -0.020949826 -0.1341306 -0.076403216 0.014807147 0.028771766 -0.051664192 0.027909933 -0.050184775 -0.06721562 0.069620974 0.063189656 0.104864515 -0.08758464 0.07971101 0.03340396 0.1317057 -0.012156768 -0.04200451 0.048215266 0.061493754 0.102088414 0.062751666 -0.0043988423 -0.10477329 -0.028120019 -0.06349675 0.008415188 0.04896041 -0.07752413 -0.060692977 0.08584581 -0.07363798 -0.043859363 0.034043234 0.0027084898 0.0062349597 0.08937644 -0.03781333 0.12753047 0.030073531 -0.0023374686 -0.043973245 0.045925654 0.045536898 -0.1358208 0.07510113 0.05481366 0.0097879525 0.030143203 -0.075804725 0.050467644 0.0919501 -0.03663931 -0.12980166 0.014703475 -0.05914901 -0.05404781 -0.019574435 0.053068273 0.0150097795 0.076947376 0.010956362 -0.09105969 0.0014809988 -0.015078012 -0.03856801 0.15371594 -0.018324858 -0.03724812 0.030270658 -0.0048965877 0.020438213 -0.010469026 0.10368692 0.100430556 -0.08866829 -0.060753047 -0.10736493 0.04388395 0.1047349 0.11726876 0.044740457 0.04575405 0.11080653 0.14260586 -0.0731708 -0.08298029 -0.01994335 0.020198341 0.05212559 0.046730325 0.0062470725 0.011805559 -0.0021028507 0.08114152 -0.12044387 0.009110471 0.01082641 -0.09120665 0.09768626 0.11400759 0.068203345 -0.0120237935 0.019971034 -0.014340748 0.040784016 0.032664835 -0.069457754 0.07105653 0.04184635 0.046682417 0.01806842 0.012937793 -0.044814385 0.012411125 -0.062170587 0.08585186 0.12244869 -0.028179308 -0.033852607 -0.11170856 0.018135386 0.022642862 -0.017231394 -0.07926507 0.02705222 0.07054179 -0.08111767 0.0023439173 -0.07515062 0.02659001 0.0041444334 0.019317465 -0.072408296 0.021713786 0.01689932 -0.03969122 -0.07970277 0.06524866 0.042995457 0.06062289 -0.10408179 -0.06878314 -0.027847081
U -0.008104765 0.0051543377 -0.04410192 0.043472905 -0.002744552 0.026777107 0.055261917 0.08251584 -0.108876295 0.03918519 0.014817239 0.0057426044 -0.030390566 0.095814966 -0.041260026 -0.0680454 0.064784735 0.11324311 -0.057456736 -0.14890444 0.020870999 -0.046441447 0.10495464 0.017445087 0.07131127 -0.031523667 0.031947147 0.07181375 -0.12578444 -0.010834871 0.04286703 0.0061272183 0.028211879 -0.0976488 -0.03720022 -0.047186848 0.005556839 -0.038874306 -0.021000432 -0.06432222 -0.0497797 -0.01963599 -0.07887272 0.024162948 0.066610105 0.02293731 -0.055663384 0.008734153 0.018115241 0.0048304275 -0.024630358 0.002857743 -0.043187667 -0.045616474 -0.03157025 -0.1340537 -0.04180325 -0.14885531 -0.08897563 -0.027514575 0.035798166 -0.06814774 0.05546948 -0.031382073 -0.077533804 0.08242627 0.06097903 0.09281217 -0.10520999 0.07436461 0.01710283 0.13796844 -0.016354876 -0.0108618755 0.057018876 0.051307887 0.101272985 0.08586868 -0.0023187292 -0.08021611 -0.017185709 -0.0904282 -0.017924905 0.039192352 -0.073767714 -0.08435265 0.098583154 -0.076822326 -0.055400982 0.017809333 -0.0060139215 0.0058389674 0.080809444 -0.042978827 0.11141825 0.01901022 0.03836404 -0.039776362 0.043165144 0.044775605 -0.10778659 0.061767522 0.06366564 0.010839977 0.0018054709 -0.06552726 0.061411206 0.076151334 -0.04556388 -0.13904202 0.013967186 -0.04372661 -0.03667295 -0.046594948 0.04745577 0.0009332022 0.07416039 -0.00866528 -0.1022394 -0.016956031 -0.024478404 -0.016320918 0.14940049 -0.011791513 -0.075536095 0.037967872 -4.5364246e-05 0.021445068 -0.020504756 0.1141996 0.07088742 -0.07986056 -0.06721855 -0.11758155 0.030626584 0.10565757 0.09880519 0.031632584 0.010845264 0.1003736 0.15489337 -0.06805585 -0.07022109 -0.013777648 0.04720686 0.022861794 0.020659136 0.006443331 0.027766556 -0.0053429105 0.049957298 -0.11044398 0.032043517 -0.0105250925 -0.1086255 0.10334694 0.083106704 0.062381312 -0.011520573 0.013911212 0.025592543 0.029532941 0.040682334 -0.04528592 0.07252549 0.045194507 0.0110535985 0.05443163 -0.009508533 -0.079619125 0.029409079 -0.044030193 0.09028537 0.11158241 -0.03703531 -0.012511947 -0.08694821 0.016123358 0.017045924 -0.024936767 -0.07360674 0.016623953 0.046510637 -0.067514196 0.0026005176 -0.082335316 0.037375014 0.051669434 0.030987272 -0.068741605 0.027207032 0.016080763 -0.06702748 -0.053158235 0.074665844 0.039076332 0.046981156 -0.11598127 -0.04051205 -0.051243767
A -0.025922386 0.01045047 -0.03801327 0.04780018 -0.012839483 0.01781842 0.05418312 0.08795011 -0.10391815 0.03884576 0.010584323 0.008188898 -0.04608398 0.08728697 -0.047028054 -0.066268064 0.046907496 0.10053124 -0.055408444 -0.14300334 0.031113088 -0.041655112 0.10522451 0.02995784 0.06585197 -0.033510618 0.027958328 0.08404689 -0.13355897 -0.013584477 0.02777215 -0.00067911274 0.043005504 -0.11205307 -0.016371008 -0.054333884 0.020164277 -0.03005983 -0.013675576 -0.05229138 -0.062081948 -0.013445626 -0.10418357 0.03294312 0.06252465 -0.0007677912 -0.04808267 0.033362206 0.035459634 0.011513639 -0.028567942 0.02502613 -0.020147093 -0.046197344 -0.006274152 -0.124041244 -0.040403157 -0.14391796 -0.076387376 -0.009314491 0.03514687 -0.062409732 0.03727919 -0.040219046 -0.06983522 0.06621686 0.070372544 0.10593866 -0.093498856 0.084306754 0.016522314 0.13385396 -0.018854909 -0.024348902 0.054278705 0.06124606 0.08993987 0.07886881 0.008084281 -0.10362673 -0.034093533 -0.07748089 0.0052433806 0.038917843 -0.08192616 -0.075259276 0.09894031 -0.06544699 -0.061760705 0.01966396 0.0052642706 -0.0027392234 0.08584345 -0.04226014 0.116070196 0.011464442 0.01920585 -0.03354021 0.040619835 0.04936497 -0.12729636 0.065803915 0.053901166 -0.002558083 0.0035425338 -0.068526044 0.056936074 0.08397894 -0.049039353 -0.13311505 0.0034561162 -0.055153955 -0.056330863 -0.039575927 0.041534908 -0.0017458057 0.060524244 -0.002771177 -0.09087582 -0.010086898 -0.030706791 -0.028679103 0.15205409 -0.007641647 -0.05583595 0.025538323 -0.0006987455 0.0051269853 -0.012203408 0.11073167 0.091932714 -0.09142842 -0.06355452 -0.115761586 0.035368167 0.10911197 0.109231755 0.04664057 0.040864345 0.09309754 0.15135127 -0.07931746 -0.08608558 -0.018781573 0.025320321 0.03327317 0.032945637 0.017187933 0.01710162 -0.004595888 0.06780089 -0.12200858 0.031173032 0.017651334 -0.10379388 0.09794942 0.10967458 0.048546933 -0.022781022 0.0074826255 0.012526646 0.031867795 0.043886412 -0.067930125 0.07155462 0.04655506 0.032557853 0.030787256 -0.0054418375 -0.06490742 0.019252723 -0.04255348 0.09470401 0.11686456 -0.03030065 -0.011194646 -0.10817801 0.018789196 0.021822391 -0.014557809 -0.06114659 0.010431878 0.06447285 -0.08620903 0.001719355 -0.085080564 0.01896245 0.03227719 0.020750461 -0.06008748 0.037785277 0.028529737 -0.05865959 -0.069209486 0.07554041 0.04653419 0.048286714 -0.112450995 -0.049994 -0.042223714
C 0.008277984 -0.0042143133 -0.046988923 0.039419256 0.0011699419 0.031338133 0.06258747 0.07491938 -0.108500145 0.03651763 0.022386588 0.009779022 -0.029683344 0.10768764 -0.04800058 -0.06611742 0.07849423 0.12130644 -0.047375772 -0.15604877 0.019370737 -0.05169502 0.11684126 0.019891717 0.06767934 -0.023505194 0.026938407 0.056230374 -0.1166956 -0.012754803 0.057739824 0.024625663 0.021641837 -0.084480956 -0.04556596 -0.041156884 -0.012502087 -0.051676035 -0.032013692 -0.07698604 -0.029154085 -0.033294335 -0.056816876 0.011321618 0.0716389 0.040849388 -0.0658416 -0.015389446 0.0073800473 -0.005106606 -0.02063066 -0.016201282 -0.05603117 -0.03899236 -0.05018512 -0.14614512 -0.047635734 -0.15853956 -0.098224774 -0.047563143 0.034871727 -0.07533896 0.0683172 -0.02403208 -0.080741905 0.09008959 0.04777578 0.078424074 -0.11467711 0.0626584 0.009931328 0.14262326 -0.021104695 0.0034086886 0.06730047 0.03477604 0.103154466 0.09606117 -0.006225661 -0.06142823 -0.0049440754 -0.102476306 -0.032621827 0.04006 -0.07338651 -0.09554397 0.11333751 -0.08261167 -0.06661147 0.013773119 -0.011446316 0.005844178 0.070036694 -0.04284239 0.10260282 0.017058622 0.05800245 -0.047169138 0.0385308 0.05303107 -0.08675147 0.050249476 0.07823034 0.023871489 -0.011237754 -0.06117137 0.06869105 0.06454165 -0.055503488 -0.14734864 0.011718726 -0.04045803 -0.025469985 -0.054172695 0.044103827 0.0020870045 0.07851571 -0.012027573 -0.11100318 -0.035243742 -0.025810752 -0.0007940124 0.14613925 -0.024932794 -0.092949495 0.048587877 -0.0054661194 0.030584216 -0.032619566 0.12657611 0.05280483 -0.07053193 -0.06784987 -0.12702422 0.021689026 0.10055352 0.08323279 0.026746191 -0.0075978166 0.09907426 0.16734363 -0.06940972 -0.067869864 -0.0064481585 0.06442003 0.0068249074 0.0038091387 0.0018976593 0.0448432 -0.0043105166 0.028373146 -0.10774441 0.05152809 -0.025619276 -0.11741607 0.116591804 0.060645703 0.0649179 -0.01055489 0.023121601 0.04590023 0.021473283 0.034153413 -0.024880573 0.07349246 0.054706015 -0.0112942 0.074539155 -0.015707498 -0.09290426 0.036185212 -0.03933252 0.09574109 0.10139111 -0.043973323 -0.003824693 -0.065555 0.0068053007 0.019988084 -0.03844199 -0.08035953 0.012774192 0.025991337 -0.058374636 0.0052051116 -0.08460734 0.045612402 0.074764565 0.04589601 -0.06802976 0.031260267 0.009148468 -0.0835781 -0.03616931 0.07079282 0.036225487 0.039633524 -0.12170286 -0.026837086 -0.060809936
