4 20
U 0.12581296 0.0035726787 -0.0035865058 -0.014557615 0.01312376 0.015233158 -0.008081407 0.00010898143 0.08223897 -0.09913497 0.085428104 -0.31760904 -0.019909186 0.0012586903 -0.004203582 -0.03268838 0.32475254 0.16644882 1.0691208 -0.42096025
A -0.11377374 0.0023675598 0.001227439 -0.0032910332 0.10738059 0.015076231 0.0028916313 -0.00088414096 0.1273955 -0.11104263 0.07490608 -0.25424424 0.0075208056 0.001694142 -0.021181643 0.12373101 0.29168296 0.13092358 1.1158601 -0.36566707
G -0.034254085 0.014687058 -0.009182401 -0.066106156 0.12445737 0.043020286 -0.019881025 -1.8509065e-05 0.068738155 -0.10679025 0.09590161 -0.29120576 0.020618066 0.0022628792 -0.04333652 0.2492909 0.21062441 0.05660173 0.9003119 -0.5727719
C -0.07180264 -0.007899057 0.008530996 0.053114653 0.065552205 -0.015128262 0.024053857 -0.0015768049 0.19603819 -0.1319735 0.08293113 -0.33547837 -0.020706508 0.0027048138 0.010341731 -0.015171946 0.31873944 0.08940771 0.8351717 -0.610244
