4 300
U -0.049311534 -0.11709023 -0.091600366 0.14452434 -0.030906951 -0.054526545 0.025884056 0.065452345 -0.034194306 -0.089995205 0.11435272 -0.006551229 0.15364644 -0.29772818 0.07923268 -0.2679395 -0.014077461 0.05436803 -0.08328936 0.028965717 0.033764333 0.050280705 0.004849227 -0.0033970985 -0.0029991418 0.0006799188 0.0034363144 0.0011649345 -0.05609171 -0.0739831 0.10130997 0.07339529 0.05210329 -0.010274974 -0.0356676 0.022576503 -7.1108902e-06 2.4800368e-06 -6.975737e-07 1.1241825e-06 1.5884309e-08 -3.0030797e-08 1.996342e-08 2.9352886e-08 4.9106297e-05 5.0811857e-05 -0.00014019798 0.00015920997 5.24402e-09 1.3609751e-08 -5.9464527e-09 8.258355e-09 -1.6778332e-06 -1.5338424e-07 7.9303106e-07 -1.2419937e-06 0.0012167558 -0.0010227548 0.00027414062 0.0016358853 -1.8182655e-08 4.1168867e-08 3.637944e-08 -5.7500777e-08 -0.004537153 -0.0030428048 -0.006847706 0.0014744281 0.005360931 0.008539764 -0.014609905 -0.018504824 2.6516947e-05 6.613739e-05 -2.9171977e-05 3.5577472e-05 4.4624514e-05 -3.0479553e-06 2.341698e-06 -4.093887e-05 -6.244413e-13 -5.3736713e-13 -1.6557966e-12 -5.7734256e-12 -4.1734265e-13 -4.314316e-13 1.9291246e-13 -2.8809054e-13 1.5726607e-13 -1.2713138e-12 1.3503394e-12 -7.176921e-13 -1.2824472e-10 -2.2435723e-10 -2.1107349e-10 1.4186154e-10 8.210383e-07 -1.7672983e-05 -3.5802054e-06 4.901522e-07 4.4808144e-06 -1.3618619e-06 -7.584888e-07 -1.5542938e-06 -2.8272226e-10 4.907559e-10 -1.3838942e-11 -5.514536e-10 -2.5352566e-13 8.6898945e-13 -9.78052e-13 5.6140596e-13 -3.7647116e-08 3.490471e-08 9.59447e-09 3.7150116e-08 -9.246849e-09 8.580061e-09 8.013905e-09 -3.7935837e-09 8.477321e-06 -2.4466171e-05 2.0439133e-05 2.7686041e-05 6.293534e-05 6.207032e-05 -7.54318e-05 0.00021001388 0.0051749167 -0.0057709566 -0.01033804 0.0021147819 1.8636862e-05 1.7687415e-05 1.0300043e-05 3.981013e-06 -9.561484e-07 -2.042889e-06 -1.830695e-06 -2.5577901e-06 -3.5653298e-09 5.0314877e-09 4.2104014e-09 -2.705457e-09 6.302972e-11 -1.4264585e-11 -3.410032e-11 2.6468805e-11 -3.6343386e-09 3.4667424e-09 -1.1425773e-07 1.6359854e-07 -3.346153e-06 -1.6468616e-06 1.0434082e-06 -5.8843825e-06 -2.655439e-05 -1.611301e-05 -3.4004975e-06 -4.4442026e-05 2.0004297e-06 7.884848e-06 6.802497e-06 6.8987456e-06 0.0001687959 0.00072856044 0.0025322495 0.0009423848 -1.062772e-08 -4.166186e-08 2.324156e-08 2.2440368e-08 4.3011113e-07 1.1523007e-06 1.541996e-07 -1.1681682e-07 2.1357764e-07 -1.7279968e-06 -2.5758736e-06 3.4476075e-06 1.8092423e-07 5.7352764e-08 -4.852633e-08 8.542986e-08 -5.830699e-07 -2.7684048e-06 1.6795457e-06 -4.974339e-06 -1.2434799e-10 1.01634735e-10 -7.443273e-11 2.635455e-11 2.270996e-07 -3.736696e-07 2.51735e-07 -1.9635006e-07 -2.6798295e-09 -1.2207898e-09 2.963522e-09 -3.0827776e-09 -1.3501563e-12 -1.0519597e-13 -5.4746355e-13 -1.3061925e-12 3.7515487e-11 -6.4439086e-11 -1.3995213e-11 1.358508e-11 -1.6281736e-11 7.353719e-12 -2.7469006e-11 -1.34256824e-11 2.145748e-06 6.3425426e-07 5.3265185e-06 -1.4030395e-06 1.6718484e-07 2.7243576e-07 2.606023e-07 4.2818203e-07 -0.0003084917 0.00017011394 3.3165816e-05 0.00047629484 -0.0004029117 7.958248e-05 -0.00046263757 6.92575e-05 -0.0006903599 0.00082021725 0.0010487105 -0.0003453539 8.428987e-06 7.036395e-06 7.3889605e-06 -4.7403905e-06 2.1669008e-05 4.7253154e-05 3.9540093e-05 -2.2082742e-05 0.00037580365 -0.00014307408 -0.0002640566 -0.00012116053 0.00017880098 9.543279e-05 -0.0006042796 0.00028238064 -7.66302e-09 8.825467e-09 3.610063e-09 -6.6833286e-09 0.00022591911 6.207389e-05 -0.0008896722 -0.00021114986 -0.00023395647 0.00028599316 0.00012864584 0.0001496819 -5.3139756e-05 6.353196e-05 -0.00016065642 -2.3041155e-05 -0.007341569 0.008448964 0.0073883818 0.0074947234 -0.046277385 0.053991757 -0.02428288 0.04869144 0.042666223 0.039048016 -0.010047044 0.062371638 -0.0075853486 -0.02527922 0.015168406 0.008437689 0.00016989135 -0.0003099531 -0.0010793868 -0.0006160011 0.0811004 0.21430035 0.0656582 -0.13388841 2.343346e-06 7.317862e-06 -7.042186e-06 0.09521607 -0.0034703414 1.0491166e-05 -1.5552288e-05 1.7948819e-10 -0.0005374694 0.0008506472 0.013260585 -4.3131142e-05
A -0.060571034 -0.1439271 -0.11369232 0.17846115 0.0042407974 0.0032581124 -0.0020639317 -0.005844691 -0.052137975 -0.13671516 0.17413183 -0.009974244 0.14889346 -0.28789568 0.076838166 -0.2605649 -0.013327236 0.049020942 -0.074559785 0.024460703 0.018243277 0.027218701 0.002631659 -0.0018354403 -0.025328 0.006053876 0.038456757 0.011108436 -0.047270365 -0.06280563 0.08523763 0.061809063 0.036048677 -0.007107866 -0.024669578 0.015625998 -4.6058562e-06 1.606164e-06 -4.5206377e-07 7.2817835e-07 9.974144e-09 -1.8855589e-08 1.2532728e-08 1.842802e-08 2.8835488e-05 2.9839826e-05 -8.2316496e-05 9.348934e-05 2.0853856e-09 5.41363e-09 -2.3646338e-09 3.282839e-09 -6.1489885e-07 -5.61737e-08 2.9049582e-07 -4.5499863e-07 0.0005025676 -0.00042219242 0.000113192924 0.0006754065 -7.784471e-09 1.7620712e-08 1.557362e-08 -2.4614005e-08 -0.005042867 -0.0033805352 -0.0076153455 0.0016393382 0.005440616 0.008664369 -0.014832027 -0.018782958 2.6329404e-05 6.567774e-05 -2.8980045e-05 3.530879e-05 2.9503162e-05 -2.0162424e-06 1.5485222e-06 -2.7072834e-05 -3.4031452e-12 -2.9167894e-12 -9.047602e-12 -3.1429602e-11 -1.5649905e-12 -1.6271755e-12 7.225126e-13 -1.0818265e-12 4.9953124e-13 -4.0341224e-12 4.2932355e-12 -2.2809144e-12 3.6877332e-10 6.488341e-10 6.0745603e-10 -4.090084e-10 3.7158293e-07 -7.9957235e-06 -1.6197126e-06 2.2177203e-07 2.263546e-06 -6.8812767e-07 -3.833044e-07 -7.8527967e-07 -1.3886793e-10 2.4107674e-10 -6.799631e-12 -2.708352e-10 -1.212959e-13 4.157876e-13 -4.6790745e-13 2.686585e-13 -1.6035356e-08 1.4868219e-08 4.0861403e-09 1.582222e-08 -4.236221e-09 3.930209e-09 3.670896e-09 -1.737484e-09 4.131418e-06 -1.1920993e-05 9.96066e-06 1.3489525e-05 2.850954e-05 2.8111774e-05 -3.417198e-05 9.509774e-05 0.0013921412 -0.0015521628 -0.002781292 0.00056874024 5.4383063e-06 5.161002e-06 3.0066685e-06 1.1619125e-06 -3.2732063e-07 -6.993648e-07 -6.264605e-07 -8.752377e-07 -1.2954304e-09 1.8281567e-09 1.5299488e-09 -9.829533e-10 2.6951752e-11 -6.100377e-12 -1.4586268e-11 1.1319878e-11 -1.523111e-09 1.4538388e-09 -4.7901334e-08 6.859226e-08 -1.4183425e-06 -6.9818765e-07 4.424404e-07 -2.4947874e-06 -1.1079563e-05 -6.724075e-06 -1.4189595e-06 -1.8540348e-05 9.0777667e-07 3.5772202e-06 3.0864928e-06 3.129651e-06 7.777987e-05 0.00033576987 0.0011671872 0.00043426582 -4.718199e-09 -1.8500222e-08 1.0317398e-08 9.9636965e-09 1.8567876e-07 4.975013e-07 6.657294e-08 -5.042739e-08 8.720551e-08 -7.054851e-07 -1.0519096e-06 1.4078636e-06 7.276001e-08 2.3066237e-08 -1.9519081e-08 3.4353175e-08 -2.1147956e-07 -1.0042011e-06 6.0911765e-07 -1.803937e-06 -3.2545966e-11 2.6598621e-11 -1.9483574e-11 6.89645e-12 6.243293e-08 -1.0271974e-07 6.9209676e-08 -5.3970265e-08 -6.7983263e-10 -3.0968264e-10 7.5174117e-10 -7.817399e-10 -3.5202944e-13 -2.7436995e-14 -1.4274751e-13 -3.4063293e-13 7.7509665e-12 -1.3309524e-11 -2.8905426e-12 2.8059443e-12 -3.7145534e-12 1.6784586e-12 -6.267705e-12 -3.0639558e-12 5.35493e-07 1.582904e-07 1.3302881e-06 -3.5024118e-07 3.9128643e-08 6.378193e-08 6.099236e-08 1.0024156e-07 -6.534155e-05 3.6033573e-05 7.0254164e-06 0.00010084828 -0.00014515895 2.8664377e-05 -0.00016662301 2.4943301e-05 -0.00021439142 0.00025436762 0.00032554672 -0.00010734967 2.4880367e-06 2.0764714e-06 2.1810017e-06 -1.399341e-06 5.971895e-06 1.302313e-05 1.0897099e-05 -6.0845855e-06 0.00010306156 -3.922558e-05 -7.240792e-05 -3.3217148e-05 5.1944342e-05 2.7710552e-05 -0.00017548347 8.1980645e-05 -2.0299775e-09 2.3377535e-09 9.564199e-10 -1.7698848e-09 4.6318637e-05 1.27316025e-05 -0.00018249158 -4.331625e-05 -3.6509788e-05 4.4630746e-05 2.0085316e-05 2.335748e-05 -8.414414e-06 1.005728e-05 -2.5427962e-05 -3.6449542e-06 -0.0006732014 0.0007753357 0.00067734625 0.00068692345 -0.004685795 0.005470707 -0.0024610262 0.004929582 -0.00037899087 -0.0003464028 8.846527e-05 -0.0005504355 -0.0006035807 -0.0020107669 0.0012066874 0.0006716953 2.8469449e-05 -5.1932762e-05 -0.0001819305 -0.000103130296 0.010266201 0.02713522 0.008304499 -0.016962623 2.908765e-07 2.594003e-07 -3.2363633e-07 0.0061359415 -0.00020780734 3.6031147e-07 -3.5016205e-07 8.137914e-12 -5.310207e-05 8.763097e-05 0.0008179257 -2.392887e-06
G -0.050997175 -0.12111501 -0.09427836 0.14907752 -0.058256082 -0.10101056 0.04818192 0.12200617 -0.04333404 -0.11388973 0.14480466 -0.008303384 0.13096057 -0.25339755 0.06764915 -0.22897221 -0.014380329 0.045336917 -0.06580254 0.016009098 0.06252639 0.093121685 0.008987799 -0.006285681 -0.010196779 0.0024293466 0.014622893 0.004397077 -0.015523106 -0.020512145 0.02766354 0.020420948 -0.0010407736 0.00020502557 0.0007084328 -0.00045523836 4.126351e-09 -1.3520225e-09 5.8448596e-10 -7.202501e-10 8.4566587e-10 -1.5980278e-09 1.0628046e-09 1.5641544e-09 3.932127e-06 4.064749e-06 -1.1225071e-05 1.2730475e-05 1.0424376e-09 2.705211e-09 -1.182796e-09 1.6420493e-09 -3.5680438e-07 -3.2644138e-08 1.6868752e-07 -2.6424766e-07 0.00021393073 -0.00017989766 4.8211452e-05 0.00028779954 -2.9695035e-09 6.7250294e-09 5.9408674e-09 -9.392348e-09 0.00051973 0.00034802966 0.0007873703 -0.00016925063 -0.00032240959 -0.00051256357 0.0008813809 0.0011144808 -1.196688e-06 -2.9876426e-06 1.3237386e-06 -1.593931e-06 6.4748288e-06 -4.4173782e-07 3.3959978e-07 -5.93955e-06 1.5285375e-12 1.3089261e-12 4.0660014e-12 1.4115493e-11 6.290158e-13 6.5532123e-13 -2.9030473e-13 4.351108e-13 -1.8846655e-13 1.5216729e-12 -1.6204736e-12 8.6064137e-13 -2.660845e-10 -4.6745513e-10 -4.3818474e-10 2.948688e-10 2.155616e-07 -4.6416612e-06 -9.4037813e-07 1.287357e-07 1.0079934e-06 -3.0625148e-07 -1.7057054e-07 -3.4950276e-07 -6.650168e-11 1.1543213e-10 -3.2545828e-12 -1.297407e-10 -6.0331494e-14 2.0680786e-13 -2.328225e-13 1.335843e-13 -1.0258266e-08 9.5120996e-09 2.6149614e-09 1.0126898e-08 -2.4329836e-09 2.2575617e-09 2.1085511e-09 -9.980688e-10 2.0764319e-06 -5.9932345e-06 5.0063554e-06 6.782764e-06 1.648237e-05 1.626302e-05 -1.9757576e-05 5.5019435e-05 0.0021119104 -0.0023552564 -0.004218903 0.0008631137 7.3894194e-06 7.0133824e-06 4.0833984e-06 1.5785633e-06 -3.442759e-07 -7.353569e-07 -6.5922166e-07 -9.211577e-07 -1.2392303e-09 1.7488719e-09 1.4633043e-09 -9.403177e-10 1.9940903e-11 -4.5125843e-12 -1.078635e-11 8.373672e-12 -1.2015008e-09 1.1454716e-09 -3.7761144e-08 5.407237e-08 -1.1444544e-06 -5.6321716e-07 3.567864e-07 -2.0124e-06 -9.148331e-06 -5.5515193e-06 -1.1714232e-06 -1.5313462e-05 7.284706e-07 2.871356e-06 2.4771455e-06 2.5127158e-06 6.062195e-05 0.00026166873 0.0009092507 0.00033842988 -3.7075278e-09 -1.45324135e-08 8.107857e-09 7.827839e-09 1.5438877e-07 4.136217e-07 5.5344202e-08 -4.1927443e-08 8.10196e-08 -6.55432e-07 -9.770386e-07 1.3075411e-06 6.951862e-08 2.2036678e-08 -1.8645808e-08 3.282325e-08 -2.3924196e-07 -1.1359799e-06 6.890935e-07 -2.040951e-06 -5.774715e-11 4.7202856e-11 -3.456524e-11 1.2239494e-11 1.02038264e-07 -1.6787958e-07 1.13111284e-07 -8.822407e-08 -1.2288117e-09 -5.598331e-10 1.3590574e-09 -1.4138293e-09 -6.2053964e-13 -4.834582e-14 -2.5160158e-13 -6.0028756e-13 1.8384273e-11 -3.157855e-11 -6.8580332e-12 6.6576237e-12 -7.786729e-12 3.5171783e-12 -1.3137617e-11 -6.4211045e-12 1.027293e-06 3.0368096e-07 2.5501795e-06 -6.7175927e-07 8.105909e-08 1.3207497e-07 1.2635009e-07 2.0755373e-07 -0.00015145824 8.35179e-05 1.6282498e-05 0.00023384485 -0.00016576325 3.2749045e-05 -0.00019037051 2.8500188e-05 -0.0003072792 0.00036526893 0.00046684075 -0.00015366716 3.7263587e-06 3.110911e-06 3.2664232e-06 -2.0955408e-06 9.8846995e-06 2.1554888e-05 1.803805e-05 -1.0074406e-05 0.00017099746 -6.5105734e-05 -0.000120134464 -5.512426e-05 7.994529e-05 4.2676966e-05 -0.00027020162 0.00012628264 -3.494961e-09 4.0248427e-09 1.6462194e-09 -3.0480742e-09 0.00010938454 3.0053725e-05 -0.000430713 -0.00010221128 -0.00011690759 0.00014290768 6.4274864e-05 7.478714e-05 -2.6661302e-05 3.1880896e-05 -8.061304e-05 -1.1562001e-05 -0.0038140574 0.004389009 0.003838205 0.0038935053 -0.023905365 0.027888274 -0.0125420205 0.025151134 0.024676627 0.022581449 -0.005809798 0.03606642 -0.003987842 -0.013291643 0.007975292 0.0044359975 7.888315e-05 -0.00014391044 -0.0005006288 -0.00028607977 0.039078187 0.10326042 0.031644218 -0.06450944 1.1863079e-06 3.7165898e-06 -3.5568164e-06 0.04705126 -0.0016917246 5.227968e-06 -7.6972065e-06 8.702772e-11 -0.00024407086 0.00038579316 0.006317102 -2.0683035e-05
C -0.030129896 -0.07157581 -0.057100467 0.089259885 0.036039986 0.059195828 -0.028657833 -0.073013395 -0.03749564 -0.098445214 0.12529683 -0.007173255 0.15974587 -0.30939317 0.08228194 -0.27849442 -0.016516292 0.07056985 -0.110636175 0.043224465 0.0077066626 0.011507191 0.0011112988 -0.00077858125 0.00677558 -0.001678941 -0.011391272 -0.003140355 -0.034670297 -0.045827426 0.06238907 0.04541442 0.09470132 -0.018673338 -0.06481752 0.041042652 -1.26330015e-05 4.4059634e-06 -1.2396335e-06 1.9972242e-06 2.7823434e-08 -5.260423e-08 3.4966654e-08 5.1414435e-08 8.295058e-05 8.5831445e-05 -0.00023680569 0.00026892274 7.5878726e-09 1.9693799e-08 -8.603074e-09 1.1947703e-08 -2.3843177e-06 -2.1793035e-07 1.1268132e-06 -1.7648159e-06 0.0017853373 -0.0015003717 0.00040219762 0.0024000104 -2.6779395e-08 6.0627386e-08 5.3576574e-08 -8.467791e-08 -0.01003683 -0.006729999 -0.015153189 0.0032624481 0.011270516 0.017951462 -0.030720618 -0.038907852 5.4225955e-05 0.00013526234 -5.967568e-05 7.273475e-05 7.3504125e-05 -5.02208e-06 3.8579515e-06 -6.744407e-05 -4.7646388e-12 -4.0856827e-12 -1.2664015e-11 -4.400886e-11 -2.288944e-12 -2.3778896e-12 1.0570269e-12 -1.5819634e-12 7.487588e-13 -6.0483537e-12 6.434173e-12 -3.4184166e-12 3.467849e-10 6.111545e-10 5.7133037e-10 -3.8492856e-10 1.2086925e-06 -2.6017262e-05 -5.269945e-06 7.215206e-07 6.9164385e-06 -2.1024025e-06 -1.1708747e-06 -2.3993566e-06 -4.2394668e-10 7.359764e-10 -2.075456e-11 -8.2689056e-10 -3.7480137e-13 1.2846449e-12 -1.4459263e-12 8.3008546e-13 -5.350324e-08 4.9609113e-08 1.3634417e-08 5.2797496e-08 -1.3450033e-08 1.2479289e-08 1.1656565e-08 -5.5173066e-09 1.2638936e-05 -3.6474576e-05 3.0475072e-05 4.127607e-05 9.1438895e-05 9.017013e-05 -0.00010959839 0.00030508562 0.0063382126 -0.007067833 -0.0126620745 0.0025899638 2.3353676e-05 2.2165019e-05 1.290824e-05 4.9892406e-06 -1.262343e-06 -2.6966247e-06 -2.416657e-06 -3.376173e-06 -4.796868e-09 6.7697585e-09 5.6652234e-09 -3.6398164e-09 8.9997315e-11 -2.0367652e-11 -4.869394e-11 3.779722e-11 -5.157967e-09 4.9211395e-09 -1.6216211e-07 2.3218637e-07 -4.76389e-06 -2.3449165e-06 1.4855954e-06 -8.378689e-06 -3.7502447e-05 -2.2758017e-05 -4.802593e-06 -6.275891e-05 2.786073e-06 1.0980189e-05 9.473916e-06 9.607291e-06 0.00023678751 0.0010221658 0.0035524447 0.0013220424 -1.4620176e-08 -5.7317017e-08 3.197291e-08 3.087242e-08 5.80799e-07 1.5561866e-06 2.0824974e-07 -1.5773219e-07 2.7921038e-07 -2.258948e-06 -3.3675012e-06 4.506876e-06 2.3432753e-07 7.428335e-08 -6.2856714e-08 1.1064339e-07 -7.2972836e-07 -3.4650452e-06 2.1017515e-06 -6.2251784e-06 -1.3961564e-10 1.1411122e-10 -8.357021e-11 2.9587766e-11 2.5681013e-07 -4.2251847e-07 2.846535e-07 -2.2201705e-07 -2.9770544e-09 -1.3562148e-09 3.2923566e-09 -3.4242014e-09 -1.5071064e-12 -1.1744133e-13 -6.1114834e-13 -1.4581046e-12 3.947153e-11 -6.7790835e-11 -1.4721308e-11 1.4291578e-11 -1.7664956e-11 7.979738e-12 -2.9803385e-11 -1.456675e-11 2.3755647e-06 7.0221745e-07 5.8986066e-06 -1.5534732e-06 1.7910348e-07 2.9187578e-07 2.7918927e-07 4.5870442e-07 -0.00032101985 0.00017701824 3.4514764e-05 0.0004955933 -0.00048944185 9.666281e-05 -0.00056186743 8.412033e-05 -0.0007907569 0.00093919586 0.0012011143 -0.00039576352 9.556605e-06 7.977164e-06 8.376483e-06 -5.3744475e-06 2.3810098e-05 5.192446e-05 4.3454027e-05 -2.426759e-05 0.00041345513 -0.00015738119 -0.00029048717 -0.00013327473 0.0002012474 0.00010740138 -0.0006801142 0.0003177906 -8.395453e-09 9.669152e-09 3.9553627e-09 -7.3223716e-09 0.00023181541 6.37024e-05 -0.0009129927 -0.00021669627 -0.00022447268 0.00027437758 0.0001234233 0.00014359954 -5.1160183e-05 6.116184e-05 -0.00015465381 -2.2177403e-05 -0.006622284 0.007622492 0.0066647264 0.006760191 -0.041865632 0.048848882 -0.021968506 0.04404865 0.032013178 0.029298194 -0.007539159 0.046801124 -0.006592796 -0.021969037 0.013183355 0.0073349085 0.00016770071 -0.00030592683 -0.0010667469 -0.0006079263 0.07595865 0.20071849 0.06148674 -0.12541442 2.162695e-06 5.7605694e-06 -5.636757e-06 0.07883145 -0.002903855 8.3732175e-06 -1.2330242e-05 1.4904906e-10 -0.00047728448 0.0007636756 0.011316575 -3.715569e-05
