4 100
U -0.037682593 0.049524073 0.012825741 0.014683257 0.020399882 0.031824905 -0.037844177 -0.074277446 -0.05150075 -0.035437245 -0.0076935166 -0.020354304 -4.6752634e-06 1.05817035e-05 8.799061e-07 4.0645373e-06 0.033949617 0.061162535 -0.033620514 -0.05095899 0.035108324 -0.046603348 0.07926327 -0.2734317 0.4682021 -0.067086056 -0.08303378 0.571916 -0.19862503 0.0698312 0.07440523 -0.1455859 0.0013449214 -0.0020832124 -0.0003205274 0.00058198837 -1.3423164e-05 -2.1282e-06 -9.76551e-06 -5.4638394e-06 0.0024266806 -0.0020907267 0.00678042 0.002312373 -0.0014111231 -0.008037646 0.0013490424 -0.00692402 -5.473045e-06 -0.0001162421 2.2834749e-05 9.860083e-06 -5.4431524e-07 -1.4376565e-07 2.952119e-07 6.4543286e-08 0.0009514513 0.00023785017 -0.00014390712 0.0003126598 0.0016327591 0.00041170797 0.0034765669 -0.00060245214 -0.00037478612 -0.0064230203 -0.00555044 0.006848192 0.0030332294 0.0038218414 -0.003068132 -0.0018972439 -0.00407441 0.0022465296 0.0004015932 -0.0009983421 0.010819163 0.041404653 -0.021564577 -0.0023197902 -0.022912344 -0.00423891 0.008101498 -0.04929942 -0.00086185016 0.0011286981 0.005166564 0.014635334 7.185795e-06 6.457738e-06 1.1164237e-05 2.4586572e-07 -0.029300263 0.028747112 0.010698424 -0.025558176 -0.06504789 -0.08607004 -0.0048827054 0.17418021
A 0.020670429 -0.027154224 -0.0070334016 -0.008058 -0.013646894 -0.021291874 0.025445266 0.049568735 0.055575192 0.038241055 0.008303966 0.021962935 1.0332439e-05 -2.3449671e-05 -1.941536e-06 -8.908896e-06 0.061057255 0.110308535 -0.060674094 -0.09219357 0.041561477 -0.058112897 0.09455247 -0.33844227 0.42280513 -0.060336225 -0.0750712 0.5170311 -0.18199363 0.06314014 0.06741011 -0.13199317 0.0067833755 -0.010579246 -0.0016209108 0.002959012 -3.696049e-05 -5.8352553e-06 -2.677456e-05 -1.4974817e-05 0.000563438 -0.00048580204 0.0015750831 0.00053741765 -0.00010244715 -0.00057790655 9.819552e-05 -0.00049947255 -9.427944e-07 -1.9953108e-05 3.9290226e-06 1.697546e-06 -4.6084043e-08 -1.212204e-08 2.5005301e-08 5.4676788e-09 0.0007781865 0.00019462554 -0.00011777017 0.0002562916 0.0013333817 0.00033541053 0.0028450598 -0.0004920103 0.00015697023 0.002688563 0.0023248103 -0.0028676377 -0.00071900175 -0.00090542523 0.00072695693 0.00044984737 0.0025011352 -0.0013802557 -0.0002466186 0.0006130686 -0.004457912 -0.017048182 0.008881815 0.00095554546 0.0152269825 0.002817398 -0.005384938 0.03277613 0.00069190183 -0.00090438774 -0.0041398103 -0.01172137 -4.587278e-06 -4.1260973e-06 -7.126213e-06 -1.570485e-07 0.01578235 -0.01548747 -0.0057524755 0.01377254 0.021219632 0.020709494 0.0010590702 -0.052282214
G 0.038224462 -0.05023057 -0.01301415 -0.014889483 -0.018357104 -0.028633498 0.034044746 0.066834226 0.09248618 0.06379476 0.0138569875 0.036219932 5.8315513e-06 -1.3227804e-05 -1.0973397e-06 -5.0852627e-06 0.06214832 0.11234893 -0.061787378 -0.09392565 0.036060125 -0.051532015 0.08224003 -0.29892924 0.3878424 -0.0552275 -0.068980664 0.47472113 -0.21743968 0.075308464 0.081031784 -0.1573986 0.04747947 -0.073994264 -0.011341974 0.02069681 -0.00027923533 -4.4104218e-05 -0.00020237733 -0.00011318563 0.0116078695 -0.010001932 0.03243265 0.011055832 -0.005108175 -0.029054584 0.004884808 -0.02505101 -2.0830941e-05 -0.00044210418 8.691994e-05 3.7524947e-05 -1.910824e-06 -5.044016e-07 1.0363292e-06 2.2654066e-07 0.00783039 0.0019587101 -0.0011848346 0.0025770785 0.013494623 0.0033983248 0.028781304 -0.0049818177 -5.8730442e-05 -0.0010124998 -0.000869327 0.0010765664 0.002666532 0.0033609215 -0.0026981235 -0.0016673893 0.0028486354 -0.0015742399 -0.00028099044 0.00069877494 0.0013188638 0.005108354 -0.0026415705 -0.00028414666 0.02362789 0.0043710982 -0.008356875 0.050895274 0.0014573514 -0.0019004641 -0.00870122 -0.024634581 -6.783792e-06 -6.113193e-06 -1.0538293e-05 -2.325284e-07 0.013002392 -0.012765489 -0.004692896 0.011364188 -0.028265698 -0.082671486 -0.005435356 0.12759787
C -0.04298426 0.056492884 0.014633483 0.016739918 0.019798167 0.030879047 -0.03659674 -0.072195575 -0.06473486 -0.044696953 -0.009706736 -0.025252018 2.2501392e-06 -5.1547736e-06 -4.2176993e-07 -1.8670116e-06 0.031502306 0.056701895 -0.03117925 -0.047247652 0.03843428 -0.05092595 0.08674698 -0.29891032 0.382037 -0.054789476 -0.06770503 0.46656698 -0.23734143 0.0833389 0.08909701 -0.17392465 -0.024196833 0.037719674 0.0057809986 -0.010549815 0.0001399223 2.2093878e-05 0.00010138137 5.6699624e-05 -0.004993484 0.0043025487 -0.013951471 -0.00475517 0.0020356553 0.011574415 -0.0019467134 0.009981818 8.375376e-06 0.000177689 -3.49465e-05 -1.5088086e-05 7.3980345e-07 1.9525876e-07 -4.0125937e-07 -8.773144e-08 -0.0036105812 -0.0009032116 0.0005463328 -0.00118841 -0.006128511 -0.0015429183 -0.0130718285 0.0022626845 -0.000160581 -0.0027489653 -0.0023779718 0.002932334 0.00023900351 0.00030043136 -0.0002410362 -0.00014963392 -0.0034436223 0.0019003642 0.00033952444 -0.0008441384 0.004857256 0.018560171 -0.009676441 -0.0010408501 -0.023112256 -0.004275982 0.008173865 -0.04975595 -0.0011614822 0.0015170089 0.006945528 0.019668365 6.988951e-06 6.2891368e-06 1.0858291e-05 2.3932458e-07 -0.02109543 0.020701356 0.007676255 -0.01841414 -0.018558644 0.0013853882 0.00046708802 0.017859885
