4 30
U 0.006426911 -0.005584422 -0.8327155 -0.5219165 0.05888586 0.026927872 -3.7239144e-05 3.177269e-05 0.06249329 0.023026492 0.24955536 -0.27462178 0.00306515 0.0004563637 -0.011433129 0.059997745 -0.0042201458 0.028235499 -0.03468458 -0.053247463 0.31112146 -0.635087 -0.028197521 -0.20449659 -0.365479 -0.055755932 -0.29483783 -0.007982831 -0.042859323 0.06585311
A 0.006848812 -0.0056377603 -0.8404507 -0.5268754 -0.12305026 -0.21539563 -5.198619e-05 4.435298e-05 0.04632781 0.017072603 0.24833076 -0.27326646 0.0029748227 0.00044290052 -0.01642473 0.08617351 -0.0023435322 0.015488932 -0.038393386 -0.059370294 0.30127406 -0.6150776 -0.03340093 -0.24211587 -0.34833252 -0.053164132 -0.27052918 -0.0073235524 -0.043123487 0.06628588
G 0.0067909174 -0.004901918 -0.80856025 -0.5068207 -0.04647694 -0.078715846 -2.4561668e-05 2.094784e-05 0.038185995 0.014077514 0.23102275 -0.25420788 0.0029145915 0.00043392088 0.013425058 -0.07041296 -0.012350638 0.0835686 0.0850514 0.14001003 0.2726583 -0.5559982 -0.05257061 -0.38037476 -0.28208315 -0.04311141 -0.17203018 -0.0046545095 -0.06079834 0.093664266
C 0.008855168 -0.0086409105 -0.71333516 -0.4472216 0.034278512 -0.04258857 4.6183257e-05 -3.940421e-05 0.16937993 0.062403042 0.32001796 -0.35212708 0.0039900527 0.00059412495 0.01457813 -0.07645573 -0.014895813 0.10067908 0.029509516 0.050155632 0.23615462 -0.48177347 -0.03628362 -0.2628916 -0.4394406 -0.06706793 -0.32977816 -0.008928929 -0.064541794 0.099263966
