4 50
U 0.07102377 -0.030333895 -0.00037209215 0.006399902 -0.025966497 0.0004243143 0.07203012 0.049926054 -0.14572945 0.11573269 0.039467316 -0.027045177 -0.17615096 -0.026145853 -0.12361757 -0.17459106 -0.12476715 -0.17436644 -0.21576765 -0.10815534 0.01964457 0.016667256 0.0123038255 -0.014267012 0.0077407076 0.014053002 0.023110932 0.0011483874 -0.009578052 -0.0065390137 -0.6624594 0.04720353 0.10897285 -3.51471e-05 -1.3076823e-06 0.009481523 8.671117e-11 -0.045657955 -0.0008226173 0.13515097 0.0043897517 0.0112585 -0.015980419 0.0046062307 0.026696706 0.031015754 0.085380085 0.14512827 0.102842435 -0.029850813
A 0.08699553 -0.03721413 -0.00037131557 0.006404253 -0.031750925 0.00051905453 0.08799164 0.061151907 -0.12446203 0.09883969 0.03372463 -0.023009514 -0.15013973 -0.022307232 -0.1625078 -0.22901501 -0.11871007 -0.16605137 -0.16746008 -0.08373822 0.055523172 0.047884535 0.035390086 -0.04100307 0.0069980794 0.0127038155 0.02088913 0.0010377232 -0.008654394 -0.005894414 -0.66028523 0.04693484 0.03800216 -4.8919005e-06 7.0503654e-07 -0.005379606 8.835005e-11 0.016601376 -4.4388402e-05 -0.033995207 -0.0013835726 -0.0099237235 0.017524112 0.0007326051 -0.015062693 -0.05036736 0.00524058 0.0077866833 0.007052102 0.0034943786
G 0.06890494 -0.029509502 -0.00024348676 0.004170403 -0.0091684265 0.00015165212 0.025370035 0.017961077 -0.14130221 0.112294175 0.03830281 -0.026119675 -0.17028615 -0.02530936 -0.19458203 -0.27393746 -0.097711444 -0.13673122 -0.1254067 -0.062637985 0.06560412 0.056661595 0.04189172 -0.04853511 0.005658233 0.010267618 0.016894864 0.00083874195 -0.0069960966 -0.0047549703 -0.5817371 0.041246276 0.13677733 -3.3596807e-05 4.5798498e-07 -0.002477354 2.6451324e-10 -0.005760796 -0.00084449595 0.047717806 0.00057969015 -0.012602795 0.024480855 0.0055650813 -0.012950286 -0.08912131 0.0780718 0.13334142 0.09935051 -0.01711665
C 0.0538197 -0.022920957 -0.00046163253 0.00784862 -0.022486672 0.0003663878 0.062483605 0.043044854 -0.20406793 0.16235165 0.05523492 -0.037980277 -0.24742733 -0.036638465 -0.08223028 -0.11648199 -0.13852838 -0.1934792 -0.27270365 -0.13687915 -0.0067769703 -0.006318629 -0.0046973387 0.0054308134 0.00794569 0.014429346 0.023720516 0.0011790743 -0.009837701 -0.006733052 -0.5124601 0.03665572 0.071386956 -2.7065518e-05 -2.551772e-06 0.016868673 -1.150562e-10 -0.06453501 -0.00041800385 0.15385179 0.0057496065 0.028038746 -0.046934344 0.0015123991 0.0529986 0.13698551 0.04986698 0.07970375 0.04813085 -0.026025174
