4 200
U -0.002248395 0.090514265 -0.035503767 0.084204465 0.18795049 0.020864831 -0.01061326 0.09574612 0.21756288 -0.010285444 -0.0663094 0.045349047 -0.015875911 -0.18385603 0.013127847 0.12433059 0.323745 0.028149944 -0.35166878 -0.0036980333 0.019839855 -0.0025722107 0.1617084 -0.085676916 0.18429355 -0.11013799 0.09636804 0.15223783 -0.19750626 -0.009947974 4.3808723e-05 -0.091538295 5.0825547e-05 -9.93046e-05 -8.474078e-05 -3.422646e-05 0.00015641843 1.6671547e-05 6.393834e-05 -5.7715295e-07 -5.066748e-06 6.014765e-06 -1.2102527e-06 -5.5329647e-06 -4.6197406e-06 -1.0706593e-06 -2.5708728e-06 6.9008565e-06 3.8319627e-05 9.473882e-05 -6.687718e-05 9.115563e-05 -8.638085e-05 -0.00016642992 -3.5322719e-06 -0.00014619916 0.00013963039 -0.0011381777 -0.0008011516 0.00035461652 0.00019614305 -0.00035051006 0.00032661774 -0.00050979835 -0.012082625 0.014025926 0.013882057 0.019013174 -0.012866438 0.014915264 0.012512304 0.018924702 5.560993e-05 -2.7641432e-05 -7.825565e-05 0.00013173684 5.7915873e-05 -1.0783057e-05 -3.25673e-06 -6.2808576e-05 7.934704e-06 0.0001410303 4.3938642e-05 -0.00014457718 0.0001301171 0.00010520256 -8.72641e-05 0.00024153435 2.7239255e-09 4.1034007e-09 -2.7099087e-09 4.3547415e-09 1.0348748e-08 -3.8994084e-09 1.2568515e-08 6.642039e-09 5.7242494e-07 -7.062097e-06 9.095567e-06 1.4101505e-06 -1.7154738e-05 1.23439895e-05 7.2132957e-06 3.690588e-06 -0.00023358813 0.00026437108 -0.00014189504 -0.00032986942 -1.5033581e-05 0.000421324 -0.00019970209 0.0001136275 1.691264e-07 1.13735304e-07 -8.9703025e-07 -3.0630912e-07 -1.1822115e-06 -8.692309e-08 1.0690252e-06 -2.8873112e-07 0.0016452556 -0.004273969 0.016864484 -0.0010952051 -0.0059558814 0.005680367 0.00068237464 0.0069907177 1.1112528e-06 -1.6776692e-05 -3.1283813e-05 3.6871967e-05 4.3287488e-05 4.060664e-05 -1.6093549e-05 -2.4126459e-05 5.39205e-06 2.8888508e-07 -1.0228002e-07 6.855209e-06 4.855615e-06 -1.1982435e-06 -1.6394982e-06 -9.4028854e-07 6.9679436e-09 1.276889e-08 9.65995e-09 -4.7976605e-09 -2.1029746e-10 -6.063721e-10 1.606619e-08 -1.3042904e-08 -0.00021927038 -0.0002584616 -0.0004004412 0.0005354163 0.0004750911 0.00066611124 0.0001525307 0.00022275756 7.372447e-05 -0.00010477369 -3.0865733e-05 7.2733215e-05 -0.00013525698 -4.8827227e-05 -7.080865e-05 -6.901665e-05 0.0002838168 -0.00048902194 0.00047563502 -0.0011661832 -0.00023597557 0.002122585 -0.00011565047 -0.0015153979 -0.0032044242 0.00056147936 0.0005741159 -0.0013043411 -0.004435641 0.0021498029 0.002001768 -0.0016448477 -0.0023243364 -0.01957725 0.03330323 -0.022622883 -0.0031211278 -0.05649371 -0.023848046 -0.0073201167 0.0024810804 3.087025e-05 0.007145778 4.481517e-05 0.0047811405 0.09954 0.0021600716 -0.07089927
A -0.0010261385 0.008464121 -0.09653929 0.0258735 -0.068295226 0.10817678 -0.0027478598 0.08309231 0.30072567 -0.0142719215 -0.09128741 0.06232523 -0.021890204 -0.25551626 0.018123176 0.17043653 0.25426748 0.021729449 -0.26890266 -0.0028902162 0.015504667 -0.0020119734 0.124881946 -0.06673018 0.18907593 -0.115687065 0.09864112 0.15527989 -0.2071222 -0.0100150285 4.562194e-05 -0.08896448 0.0002854242 -0.00055806694 -0.00045930635 -0.00018831124 0.0009356742 9.32477e-05 0.00033402236 -3.1824131e-06 1.1113545e-06 -1.3193874e-06 2.6548187e-07 1.2134329e-06 1.0133067e-06 2.3488955e-07 5.639319e-07 -1.5136995e-06 -9.900366e-06 -2.4469698e-05 1.727919e-05 -2.3548288e-05 2.231509e-05 4.3004104e-05 9.124555e-07 3.777891e-05 -3.6009624e-05 0.00029351193 0.00020661157 -9.1452835e-05 -5.0563478e-05 9.039408e-05 -8.421565e-05 0.00013144492 0.0019827115 -0.0023017374 -0.0022785082 -0.0031205271 0.0021115735 -0.0024473919 -0.0020526082 -0.0031043196 -1.1948403e-05 5.939941e-06 1.6817581e-05 -2.8307802e-05 -1.244393e-05 2.317195e-06 6.9977386e-07 1.3496127e-05 -1.7178698e-06 -3.0526167e-05 -9.511164e-06 3.1303527e-05 -2.8170653e-05 -2.2772807e-05 1.8892672e-05 -5.229357e-05 -5.983659e-10 -9.01358e-10 5.9526906e-10 -9.565053e-10 -2.2730484e-09 8.5650287e-10 -2.7605565e-09 -1.4589389e-09 -1.1555525e-07 1.4259432e-06 -1.8357886e-06 -2.847521e-07 3.4623176e-06 -2.4923827e-06 -1.4563045e-06 -7.4507176e-07 4.818699e-05 -5.4546734e-05 2.9277722e-05 6.8067726e-05 3.1017003e-06 -8.694471e-05 4.1199142e-05 -2.3443745e-05 -3.395118e-08 -2.2829282e-08 1.8005301e-07 6.151036e-08 2.3734356e-07 1.7449912e-08 -2.1455305e-07 5.7954455e-08 -0.00031166125 0.00080950913 -0.0031950353 0.0002074587 0.001128187 -0.0010758577 -0.00012926167 -0.0013242626 -2.3580623e-07 3.55918e-06 6.639444e-06 -7.825093e-06 -9.184971e-06 -8.618501e-06 3.4154953e-06 5.1200045e-06 -1.1341743e-06 -6.0774305e-08 2.151514e-08 -1.4419891e-06 -1.021327e-06 2.520684e-07 3.4486578e-07 1.9781885e-07 -1.5301871e-09 -2.8042817e-09 -2.120838e-09 1.0537073e-09 4.61779e-11 1.3318334e-10 -3.5279775e-09 2.8641804e-09 4.7209174e-05 5.5654553e-05 8.619181e-05 -0.00011526121 -0.000102276135 -0.00014338791 -3.2832384e-05 -4.7947484e-05 -1.596462e-05 2.2682625e-05 6.684479e-06 -1.5749058e-05 2.9292498e-05 1.0571167e-05 1.5330677e-05 1.4943998e-05 -5.2714313e-05 9.085312e-05 -8.8334054e-05 0.00021660859 4.3830085e-05 -0.00039431386 2.148919e-05 0.00028147834 0.0005671496 -9.9370955e-05 -0.000101587924 0.00023085668 0.0007852369 -0.0003804025 -0.00035432275 0.0002911618 0.0003833262 0.0032289901 -0.0054925038 0.003730489 0.00051474175 0.009316007 0.0039319643 0.0012069322 -0.00059769774 -6.87269e-06 -0.0015863457 -9.692576e-06 -0.0010802076 -0.021590043 -0.00049284846 0.016446484
G 0.000742921 -0.0092559615 0.06179762 -0.019816391 0.03409055 -0.06836988 0.00218123 -0.056150325 0.27889156 -0.013295897 -0.08091711 0.054720968 -0.019057231 -0.22962761 0.01672518 0.14600438 0.29105467 0.025313929 -0.31644556 -0.0033300172 0.01790567 -0.0023191958 0.14593966 -0.0771344 0.16544263 -0.10184084 0.087199084 0.13620593 -0.1829464 -0.008693768 4.067883e-05 -0.076263815 -0.0015977613 0.0031232715 0.0025765283 0.0010557361 -0.005218736 -0.0005221107 -0.0018782843 1.783179e-05 3.1502395e-06 -3.7408079e-06 7.524845e-07 3.4412817e-06 2.8736397e-06 6.656169e-07 1.5986066e-06 -4.291405e-06 -1.7093671e-05 -4.2255593e-05 2.982361e-05 -4.06477e-05 3.852905e-05 7.421224e-05 1.5756489e-06 6.516498e-05 -5.3870168e-05 0.0004394127 0.00030916056 -0.00013683815 -7.571035e-05 0.00013536373 -0.0001261183 0.00019686036 0.0011936175 -0.0013855735 -0.0013682949 -0.0018771022 0.0012686314 -0.0014744452 -0.0012408958 -0.0018688786 6.968184e-06 -3.4616344e-06 -9.790646e-06 1.6493153e-05 7.246909e-06 -1.3529866e-06 -4.0729245e-07 -7.871601e-06 1.3993315e-06 2.4865361e-05 7.758344e-06 -2.549665e-05 2.2963872e-05 1.8554409e-05 -1.5387484e-05 4.260363e-05 5.815622e-10 8.763667e-10 -5.7864225e-10 9.297972e-10 2.209897e-09 -8.327209e-10 2.6803013e-09 1.41829e-09 3.1652425e-07 -3.9058777e-06 5.0285644e-06 7.796347e-07 -9.483762e-06 6.827651e-06 3.989683e-06 2.0410014e-06 -0.00013407128 0.00015175693 -8.143465e-05 -0.0001893658 -8.628975e-06 0.00024193249 -0.00011459156 6.523087e-05 5.8509617e-08 3.9346574e-08 -3.1032377e-07 -1.0606737e-07 -4.0910473e-07 -3.0077864e-08 3.6966503e-07 -9.9902714e-08 0.0005283701 -0.0013722875 0.005413784 -0.00035155754 -0.0019127924 0.0018235844 0.00021901325 0.0022448923 6.781859e-07 -1.0241281e-05 -1.9101557e-05 2.2510763e-05 2.6426718e-05 2.4785695e-05 -9.830049e-06 -1.47249375e-05 4.0120485e-06 2.1503755e-07 -7.6099695e-08 5.1006687e-06 3.613892e-06 -8.9155833e-07 -1.2197838e-06 -6.9980047e-07 5.1746074e-09 9.48365e-09 7.173643e-09 -3.5626957e-09 -1.5616257e-10 -4.5031154e-10 1.19296795e-08 -9.685332e-09 -0.00015319385 -0.00018064077 -0.00027974352 0.00037406286 0.00033191973 0.00046536585 0.00010656734 0.00015562601 4.596286e-05 -6.53366e-05 -1.9253348e-05 4.537705e-05 -8.4387764e-05 -3.0448944e-05 -4.415581e-05 -4.3055337e-05 0.00012845198 -0.00022139736 0.00021526356 -0.00052803115 -0.000106820036 0.0009613381 -5.2341853e-05 -0.00068583735 -0.0012001623 0.0002103128 0.00021505031 -0.00048859115 -0.0016626165 0.0008054618 0.0007495221 -0.0006160252 -0.00042839296 -0.0036069714 0.0061317645 -0.004167491 -0.000574611 -0.010403718 -0.004390431 -0.0013471006 0.0010487166 1.6871058e-05 0.0037045649 1.9381005e-05 0.0013034284 0.020168515 0.00066089456 -0.0041503124
C -0.002952159 0.09290554 -0.10975054 0.10058411 0.12552537 0.10495232 -0.012274144 0.15664798 0.24572432 -0.011586979 -0.07712859 0.053054847 -0.018691065 -0.21235701 0.014880972 0.14766598 0.2854735 0.024644589 -0.30660626 -0.003251237 0.017418643 -0.002260954 0.1413323 -0.07522485 0.11517297 -0.06710456 0.05973626 0.095349126 -0.119627886 -0.0063606678 2.6529675e-05 -0.060742244 0.00083634484 -0.00163499 -0.001351497 -0.0005533073 0.002723066 0.00027336142 0.0009873174 -9.344109e-06 -6.3855664e-06 7.581079e-06 -1.5251825e-06 -6.97365e-06 -5.8229625e-06 -1.3493328e-06 -3.240097e-06 8.698416e-06 4.6099234e-05 0.00011397776 -8.0457954e-05 0.00010965611 -0.000103918246 -0.00020022334 -4.2498386e-06 -0.00017586132 0.0001658819 -0.0013522079 -0.00095172913 0.0004212683 0.00023302058 -0.00041648748 0.00038807155 -0.000605729 -0.013666608 0.015863774 0.015700236 0.021502296 -0.014552951 0.016870828 0.014154842 0.0214067 5.660677e-05 -2.8135619e-05 -7.966375e-05 0.00013408375 5.895577e-05 -1.0974856e-05 -3.3150152e-06 -6.392595e-05 7.94064e-06 0.00014114582 4.3968914e-05 -0.00014470158 0.00013021533 0.000105284846 -8.7328066e-05 0.00024169407 2.6404312e-09 3.9783e-09 -2.627207e-09 4.2222696e-09 1.0033989e-08 -3.780215e-09 1.21864625e-08 6.4393038e-09 4.777707e-07 -5.894141e-06 7.5918233e-06 1.1769613e-06 -1.4319037e-05 1.0302141e-05 6.020412e-06 3.0800752e-06 -0.0001928225 0.00021822895 -0.000117134405 -0.000272294 -1.2410418e-05 0.00034773763 -0.00016486079 9.380584e-05 1.5499332e-07 1.0422802e-07 -8.220594e-07 -2.8064062e-07 -1.0834544e-06 -7.964891e-08 9.797049e-07 -2.6457462e-07 0.0015419988 -0.0040058726 0.01580707 -0.001026549 -0.005581701 0.0053239283 0.00063956925 0.0065522273 9.1344424e-07 -1.37891575e-05 -2.5710404e-05 3.030514e-05 3.557805e-05 3.3374516e-05 -1.3225612e-05 -1.9830983e-05 4.2264414e-06 2.2639385e-07 -8.016367e-08 5.373327e-06 3.8057963e-06 -9.3912877e-07 -1.2850345e-06 -7.3684816e-07 5.3801044e-09 9.85928e-09 7.459633e-09 -3.7047747e-09 -1.6238404e-10 -4.6818066e-10 1.2407554e-08 -1.0073183e-08 -0.00017264178 -0.00020349135 -0.00031528817 0.0004215707 0.0003740879 0.00052445283 0.000120106626 0.00017541033 6.253028e-05 -8.887563e-05 -2.6177182e-05 6.1670406e-05 -0.00011469801 -4.141406e-05 -6.0057064e-05 -5.8527756e-05 0.0002608009 -0.00044933447 0.00043708447 -0.0010715238 -0.00021681738 0.0019501017 -0.00010626695 -0.001392414 -0.0030902196 0.0005413998 0.0005535704 -0.0012576277 -0.004277031 0.0020726712 0.001930156 -0.0015860688 -0.0024041906 -0.020248504 0.03444466 -0.023399435 -0.0032281391 -0.05842656 -0.024666263 -0.0075713554 0.0023038387 2.4919955e-05 0.005782842 3.7477435e-05 0.0040640733 0.09267481 0.0018153283 -0.066752106
