4 10
U -0.0017234627 -0.0009757493 -0.0137472255 0.09742419 -0.33966926 -0.47238767 0.4397391 -0.20827155 -0.9536249 1.0413578
A -0.00012633765 -7.1515766e-05 -0.0008810937 0.006258521 -0.34945402 -0.48594669 0.5110637 -0.23783895 -1.0559461 0.88367075
G 0.002947958 0.0016689951 0.025445994 -0.18029213 -0.29292837 -0.40741935 0.6304103 -0.28809196 -1.2014302 0.65042007
C -0.0030504 -0.0017271109 -0.03240949 0.22959936 -0.25976604 -0.3611157 0.5957429 -0.2703736 -1.2536386 0.6030799
