4 50
U -0.0051282262 -0.0050725387 -0.051903553 -0.17297418 -0.25190437 0.10929578 -0.22423422 -0.10821868 0.0065941713 -0.0069260783 0.0075645107 0.009569936 -0.014410352 -0.004065236 -5.0665945e-05 -0.000106402724 -1.3402823e-06 -6.84177e-07 -7.290368e-05 -0.0001289432 0.049803138 -0.29830015 0.16481324 -0.06783985 0.0016875905 -0.010224567 0.0018118755 0.00066988013 0.030020501 0.11680079 0.008474554 -0.00343116 -0.005043447 0.0020580029 0.026969634 -0.0031099622 0.22889735 -0.16171509 0.12304532 0.46400824 0.4540556 -0.27181175 0.100862056 0.080274224 -0.011795255 -0.013960277 -0.02068044 -0.0013547651 0.46630543 -0.1758691
A -0.0018831457 -0.0018625228 -0.045516778 -0.15168074 -0.41349918 0.20287772 -0.17516088 -0.084519915 0.008987355 -0.009443459 -0.011170808 -0.013105461 -0.086421505 -0.024703205 -4.9476013e-05 -0.00010390914 -1.4221288e-06 -7.261655e-07 -7.535058e-05 -0.00013329489 0.052709434 -0.3157899 0.17293826 -0.07120997 0.001823104 -0.01104799 0.002055779 0.00075971935 0.03745716 0.14573117 0.011019406 -0.004466916 -0.012063838 0.0049266075 0.026899334 -0.0031012436 0.25375244 -0.17922463 0.11127086 0.41898134 0.34082124 -0.2034772 0.059777115 0.047674287 -0.035072803 -0.044119157 -0.018638745 -0.0012198781 0.4611678 -0.17392233
G 0.009833901 0.0097267 -0.0093884 -0.031304613 -0.27380678 0.15069723 -0.13446419 -0.06483329 0.011679635 -0.012279994 -0.047573604 -0.057258017 -0.24699704 -0.07074626 -5.8110843e-05 -0.000122027624 -1.8916398e-06 -9.661316e-07 -8.7853645e-05 -0.00015542663 0.063242786 -0.37891424 0.21069883 -0.08676883 0.0023397757 -0.014183011 0.0028917391 0.0010683328 0.05979827 0.23259802 0.019754065 -0.008018805 -0.02833734 0.011572547 0.029514197 -0.0034018052 0.3373239 -0.23822604 0.105944015 0.3972108 0.13432343 -0.078520216 -0.02147283 -0.016803171 -0.09822253 -0.12567018 -0.019832943 -0.0012947227 0.4467284 -0.16848998
C -0.013231804 -0.013084398 -0.024631618 -0.08206742 -0.26790196 0.1330247 -0.2133237 -0.10289782 0.010261899 -0.010786449 -0.03027208 -0.036423843 0.08809897 0.025297042 -7.6724624e-05 -0.00016111734 -2.2353045e-06 -1.1409084e-06 -8.693052e-05 -0.00015377412 0.07395237 -0.44306976 0.2512535 -0.10343695 0.003800104 -0.023068594 0.004303618 0.001589543 0.09294483 0.36139324 0.03347892 -0.013593904 -0.034398217 0.014047348 0.030312635 -0.0034940513 0.32958815 -0.2326664 0.1340185 0.50315315 0.056508936 -0.031496856 -0.054472197 -0.04294337 -0.0694522 -0.08901627 -0.0134768775 -0.0008794352 0.33658487 -0.12693092
