4 15
U 0.017217577 -3.629916e-05 0.026446108 -0.044985984 -0.41821602 0.12724341 0.091903254 -0.009004572 0.48113504 -0.19028549 -0.70875823 0.2961974 0.028188678 -0.0085750725 -0.4679648
A 0.061110232 -0.00022254416 0.027755614 -0.015154148 -0.2457669 0.14637293 0.0631623 0.053322867 0.5845193 -0.15089919 -0.80480814 0.24562578 0.025654547 -0.005035313 -0.41863212
G 0.02684542 -0.00019453574 -0.008912755 -0.013620051 -0.069613725 -0.01741361 0.010407216 -0.033150192 0.5167354 0.13303763 -0.58664984 0.41319227 0.04214257 -0.009872146 -0.68777144
C -0.07414942 0.00027008925 -0.008663254 -0.01740255 -0.055893622 -0.055344373 0.0030066855 -0.060421634 0.26672822 -0.08135417 -0.59498173 0.5425875 0.04280289 -0.02370916 -0.7389475
